%YAML:1.0
---
opencv_ml_nbayes:
   format: 3
   var_count: 49
   var_all: 49
   cls_labels: !!opencv-matrix
      rows: 2
      cols: 1
      dt: i
      data: [ -1, 1 ]
   count:
      - !!opencv-matrix
         rows: 1
         cols: 49
         dt: i
         data: [ 462770, 462770, 462770, 462770, 462770, 462770, 462770,
             462770, 462770, 462770, 462770, 462770, 462770, 462770,
             462770, 462770, 462770, 462770, 462770, 462770, 462770,
             462770, 462770, 462770, 462770, 462770, 462770, 462770,
             462770, 462770, 462770, 462770, 462770, 462770, 462770,
             462770, 462770, 462770, 462770, 462770, 462770, 462770,
             462770, 462770, 462770, 462770, 462770, 462770, 462770 ]
      - !!opencv-matrix
         rows: 1
         cols: 49
         dt: i
         data: [ 462770, 462770, 462770, 462770, 462770, 462770, 462770,
             462770, 462770, 462770, 462770, 462770, 462770, 462770,
             462770, 462770, 462770, 462770, 462770, 462770, 462770,
             462770, 462770, 462770, 462770, 462770, 462770, 462770,
             462770, 462770, 462770, 462770, 462770, 462770, 462770,
             462770, 462770, 462770, 462770, 462770, 462770, 462770,
             462770, 462770, 462770, 462770, 462770, 462770, 462770 ]
   sum:
      - !!opencv-matrix
         rows: 1
         cols: 49
         dt: d
         data: [ 28010043., 29383867., 30890364., 32482282., 34019490.,
             35130118., 35319159., 28085641., 29708822., 31409618.,
             33170123., 34906863., 36269447., 36505139., 28159676.,
             29900449., 31748504., 33649893., 35530294., 37000557.,
             37267902., 28300519., 30079478., 31994295., 33964075.,
             35888895., 37382717., 37594706., 28494588., 30262040.,
             32123682., 34032489., 35916659., 37354923., 37563511.,
             28652670., 30406499., 32170058., 33928749., 35616523.,
             36910628., 37116735., 28878815., 30500831., 32046523.,
             33559054., 34988411., 36015106., 36201104. ]
      - !!opencv-matrix
         rows: 1
         cols: 49
         dt: d
         data: [ 1279342., 1231464., 1208946., 1198861., 1196703.,
             1210680., 1244159., 1249036., 1201899., 1179710., 1170209.,
             1169079., 1184001., 1218705., 1237797., 1190482., 1167919.,
             1159111., 1157744., 1171866., 1208136., 1241169., 1191677.,
             1169681., 1159500., 1157563., 1170040., 1208007., 1255514.,
             1205363., 1181823., 1171164., 1169672., 1181517., 1219212.,
             1286842., 1231763., 1206905., 1195358., 1193272., 1205535.,
             1249534., 1341172., 1280881., 1253637., 1241627., 1241494.,
             1260849., 1311766. ]
   productsum:
      - !!opencv-matrix
         rows: 49
         cols: 49
         dt: d
         data: [ 2.3827920970000000e+09, 2.3733338630000000e+09,
             2.3778611930000000e+09, 2.4068271270000000e+09,
             2.4300231520000000e+09, 2.4416170560000000e+09,
             2.4123333710000000e+09, 2.2977047560000000e+09,
             2.3499580730000000e+09, 2.3825156830000000e+09,
             2.4182567980000000e+09, 2.4518426220000000e+09,
             2.4749218870000000e+09, 2.4500160270000000e+09,
             2.2281525660000000e+09, 2.3076862450000000e+09,
             2.3691321840000000e+09, 2.4184019650000000e+09,
             2.4604927400000000e+09, 2.4913454310000000e+09,
             2.4662266110000000e+09, 2.2004505600000000e+09,
             2.2793308340000000e+09, 2.3500861250000000e+09,
             2.4068933640000000e+09, 2.4568166060000000e+09,
             2.4879654400000000e+09, 2.4632421420000000e+09,
             2.1693392700000000e+09, 2.2469450640000000e+09,
             2.3169518170000000e+09, 2.3757213340000000e+09,
             2.4287207210000000e+09, 2.4658911980000000e+09,
             2.4466892540000000e+09, 2137041773., 2.2141134910000000e+09,
             2.2791030310000000e+09, 2.3386341170000000e+09,
             2.3884430950000000e+09, 2.4256452320000000e+09,
             2.4149471760000000e+09, 2116321047., 2.1870686870000000e+09,
             2.2469367840000000e+09, 2.2979320980000000e+09,
             2.3445443110000000e+09, 2.3701039010000000e+09,
             2.3612110370000000e+09, 2.3733338630000000e+09,
             2.5374650110000000e+09, 2.5404174860000000e+09,
             2.5434412210000000e+09, 2.5647442700000000e+09,
             2.5716783310000000e+09, 2.5352934410000000e+09,
             2.3313272350000000e+09, 2.4634980470000000e+09,
             2.5232422080000000e+09, 2.5513981840000000e+09,
             2.5821676400000000e+09, 2.6031711670000000e+09,
             2.5702561620000000e+09, 2.2743353180000000e+09,
             2.3920020980000000e+09, 2.4857741420000000e+09,
             2.5412836810000000e+09, 2.5847683190000000e+09,
             2.6151938230000000e+09, 2.5858428050000000e+09,
             2.2438548600000000e+09, 2.3592663420000000e+09,
             2.4538346720000000e+09, 2.5236351340000000e+09,
             2.5751746880000000e+09, 2.6082498750000000e+09,
             2.5814681650000000e+09, 2.2176693740000000e+09,
             2.3238975300000000e+09, 2.4112038950000000e+09,
             2.4833626580000000e+09, 2.5409356030000000e+09,
             2.5785636920000000e+09, 2.5593110500000000e+09,
             2.1878945910000000e+09, 2.2867993400000000e+09,
             2.3672301980000000e+09, 2.4337164040000000e+09,
             2.4942583340000000e+09, 2.5316225240000000e+09,
             2.5211147010000000e+09, 2.1660619410000000e+09,
             2.2564112000000000e+09, 2.3286991600000000e+09,
             2.3871705050000000e+09, 2.4391073850000000e+09,
             2.4721505030000000e+09, 2.4633507200000000e+09,
             2.3778611930000000e+09, 2.5404174860000000e+09,
             2.7126683520000000e+09, 2.7152490390000000e+09,
             2.7124942060000000e+09, 2.7187958930000000e+09,
             2.6736997970000000e+09, 2.3598217020000000e+09,
             2.5147918430000000e+09, 2.6466739990000000e+09,
             2.7033955550000000e+09, 2.7275601010000000e+09,
             2.7467311710000000e+09, 2.7084578530000000e+09,
             2.3258544780000000e+09, 2.4578230610000000e+09,
             2.5788981160000000e+09, 2.6711937610000000e+09,
             2.7238000230000000e+09, 2.7532273690000000e+09,
             2.7229144300000000e+09, 2.2978773660000000e+09,
             2.4226148410000000e+09, 2.5453303480000000e+09,
             2.6412971900000000e+09, 2.7095699560000000e+09,
             2.7431948760000000e+09, 2.7166063560000000e+09,
             2.2754988930000000e+09, 2.3912352910000000e+09,
             2.5022563200000000e+09, 2.5932236600000000e+09,
             2.6665923340000000e+09, 2.7081258510000000e+09,
             2.6881688480000000e+09, 2.2502970240000000e+09,
             2.3564718050000000e+09, 2.4556536300000000e+09,
             2.5364027420000000e+09, 2.6065368500000000e+09,
             2.6547201770000000e+09, 2.6454964250000000e+09,
             2.2309960360000000e+09, 2.3263713120000000e+09,
             2.4132660970000000e+09, 2.4843040810000000e+09,
             2.5472540440000000e+09, 2.5873281510000000e+09,
             2.5862697480000000e+09, 2.4068271270000000e+09,
             2.5434412210000000e+09, 2.7152490390000000e+09,
             2.9036723540000000e+09, 2.9044415200000000e+09,
             2.8815659840000000e+09, 2.8330181300000000e+09,
             2.3937713640000000e+09, 2.5417794190000000e+09,
             2.7010269380000000e+09, 2.8425014480000000e+09,
             2.8985092620000000e+09, 2.9065936610000000e+09,
             2.8645804210000000e+09, 2.3654737600000000e+09,
             2.5104623170000000e+09, 2.6488478400000000e+09,
             2.7779436760000000e+09, 2.8705122780000000e+09,
             2.9054903710000000e+09, 2.8736919180000000e+09,
             2.3491675210000000e+09, 2.4811956340000000e+09,
             2.6134514540000000e+09, 2.7428264650000000e+09,
             2.8419408940000000e+09, 2.8908212140000000e+09,
             2.8642255810000000e+09, 2.3337628480000000e+09,
             2.4536375530000000e+09, 2.5750558330000000e+09,
             2.6916740900000000e+09, 2.7886127230000000e+09,
             2.8459996990000000e+09, 2.8315928860000000e+09,
             2.3114556080000000e+09, 2.4221952170000000e+09,
             2.5320745090000000e+09, 2.6326837880000000e+09,
             2.7214364990000000e+09, 2.7818649800000000e+09,
             2.7828650980000000e+09, 2.2939974180000000e+09,
             2.3963146250000000e+09, 2.4909644650000000e+09,
             2.5802891670000000e+09, 2.6577138080000000e+09,
             2.7108360350000000e+09, 2.7148028360000000e+09,
             2.4300231520000000e+09, 2.5647442700000000e+09,
             2.7124942060000000e+09, 2.9044415200000000e+09,
             3.0954497260000000e+09, 3.0758329620000000e+09,
             2.9956445720000000e+09, 2.4234706440000000e+09,
             2.5692996670000000e+09, 2.7236261950000000e+09,
             2.8981802470000000e+09, 3.0441417170000000e+09,
             3.0797327790000000e+09, 3.0245850760000000e+09,
             2.4033722220000000e+09, 2.5458366830000000e+09,
             2.6991937920000000e+09, 2.8498467990000000e+09,
             2.9837512110000000e+09, 3.0535813480000000e+09,
             3.0250203390000000e+09, 2.3909890950000000e+09,
             2.5280870290000000e+09, 2.6712593740000000e+09,
             2.8148690200000000e+09, 2.9507793520000000e+09,
             3.0289486870000000e+09, 3.0131576890000000e+09,
             2.3819436440000000e+09, 2.5101575940000000e+09,
             2.6394418490000000e+09, 2.7668846850000000e+09,
             2.8944274160000000e+09, 2.9763618800000000e+09,
             2.9747972880000000e+09, 2.3654590830000000e+09,
             2.4850366810000000e+09, 2.5996947460000000e+09,
             2.7110163660000000e+09, 2.8235896110000000e+09,
             2.9039544360000000e+09, 2.9144366170000000e+09,
             2.3532003540000000e+09, 2.4601246020000000e+09,
             2.5604114230000000e+09, 2.6587282190000000e+09,
             2.7572593870000000e+09, 2.8274103160000000e+09,
             2.8414415130000000e+09, 2.4416170560000000e+09,
             2.5716783310000000e+09, 2.7187958930000000e+09,
             2.8815659840000000e+09, 3.0758329620000000e+09,
             3.2390061820000000e+09, 3.1578227640000000e+09,
             2.4404760080000000e+09, 2.5841269360000000e+09,
             2.7380209590000000e+09, 2.9054430730000000e+09,
             3.0884601230000000e+09, 3.2021243380000000e+09,
             3.1636702930000000e+09, 2.4274233050000000e+09,
             2.5690106520000000e+09, 2.7224100160000000e+09,
             2.8928053900000000e+09, 3.0471975990000000e+09,
             3.1483322190000000e+09, 3.1443492720000000e+09,
             2.4158094270000000e+09, 2.5554077250000000e+09,
             2.7085132320000000e+09, 2.8680352690000000e+09,
             3.0150141510000000e+09, 3.1202110730000000e+09,
             3.1273501990000000e+09, 2.4133471830000000e+09,
             2.5488238020000000e+09, 2.6900132370000000e+09,
             2.8261816120000000e+09, 2.9630804460000000e+09,
             3.0680813830000000e+09, 3.0811527030000000e+09,
             2.4041513480000000e+09, 2.5340210750000000e+09,
             2.6564417090000000e+09, 2.7724352050000000e+09,
             2.8947390250000000e+09, 2.9916849840000000e+09,
             3.0139610000000000e+09, 2.3984381950000000e+09,
             2.5133750550000000e+09, 2.6164324120000000e+09,
             2.7216191400000000e+09, 2.8269506220000000e+09,
             2.9110840860000000e+09, 2.9355688550000000e+09,
             2.4123333710000000e+09, 2.5352934410000000e+09,
             2.6736997970000000e+09, 2.8330181300000000e+09,
             2.9956445720000000e+09, 3.1578227640000000e+09,
             3.2756424970000000e+09, 2.4118962890000000e+09,
             2.5531786610000000e+09, 2.7024499340000000e+09,
             2.8655692030000000e+09, 3.0383549350000000e+09,
             3.1949598820000000e+09, 3.2437297620000000e+09,
             2.4045490690000000e+09, 2.5463914410000000e+09,
             2.6977097490000000e+09, 2.8618555410000000e+09,
             3.0366678800000000e+09, 3.1605564190000000e+09,
             3.1933743520000000e+09, 2.3979730590000000e+09,
             2.5360548060000000e+09, 2.6892017360000000e+09,
             2.8556007030000000e+09, 3.0124823190000000e+09,
             3.1327494680000000e+09, 3.1716722040000000e+09,
             2.3987830980000000e+09, 2.5371403520000000e+09,
             2.6816787930000000e+09, 2.8319681050000000e+09,
             2.9723854670000000e+09, 3.0851412640000000e+09,
             3.1263383610000000e+09, 2.3998390580000000e+09,
             2.5304782690000000e+09, 2.6629345050000000e+09,
             2.7900636720000000e+09, 2.9100646830000000e+09,
             3.0133951530000000e+09, 3.0572571420000000e+09,
             2.3985115470000000e+09, 2.5203351610000000e+09,
             2.6335320130000000e+09, 2.7397374050000000e+09,
             2.8463887980000000e+09, 2.9336905390000000e+09,
             2.9766814090000000e+09, 2.2977047560000000e+09,
             2.3313272350000000e+09, 2.3598217020000000e+09,
             2.3937713640000000e+09, 2.4234706440000000e+09,
             2.4404760080000000e+09, 2.4118962890000000e+09,
             2.3886174350000000e+09, 2.3895306950000000e+09,
             2.4000021200000000e+09, 2.4337865670000000e+09,
             2.4621744170000000e+09, 2.4805703540000000e+09,
             2.4552309330000000e+09, 2.3028297860000000e+09,
             2.3572658100000000e+09, 2.3944025310000000e+09,
             2.4353572970000000e+09, 2.4718369250000000e+09,
             2.4974643580000000e+09, 2.4733055920000000e+09,
             2.2366054890000000e+09, 2.3137839420000000e+09,
             2.3759216270000000e+09, 2.4274183400000000e+09,
             2.4707785170000000e+09, 2.5012839420000000e+09,
             2.4755680010000000e+09, 2.2115518750000000e+09,
             2.2876413370000000e+09, 2.3536601910000000e+09,
             2.4059911250000000e+09, 2.4535735270000000e+09,
             2.4837543550000000e+09, 2.4597616750000000e+09,
             2.1808383280000000e+09, 2.2548011840000000e+09,
             2.3171794730000000e+09, 2.3677643120000000e+09,
             2.4134487240000000e+09, 2.4466887560000000e+09,
             2.4288167200000000e+09, 2.1497424510000000e+09,
             2.2190017990000000e+09, 2.2732878800000000e+09,
             2.3227604250000000e+09, 2.3643716510000000e+09,
             2.3919528510000000e+09, 2.3798987160000000e+09,
             2.3499580730000000e+09, 2.4634980470000000e+09,
             2.5147918430000000e+09, 2.5417794190000000e+09,
             2.5692996670000000e+09, 2.5841269360000000e+09,
             2.5531786610000000e+09, 2.3895306950000000e+09,
             2.5723657280000000e+09, 2.5814900720000000e+09,
             2.5887564020000000e+09, 2.6160393760000000e+09,
             2.6310416630000000e+09, 2.5982374860000000e+09,
             2.3500354870000000e+09, 2.4865092700000000e+09,
             2.5523593590000000e+09, 2.5862453980000000e+09,
             2.6203406510000000e+09, 2.6439095200000000e+09,
             2.6120051470000000e+09, 2.2957489340000000e+09,
             2.4125703940000000e+09, 2.5069187040000000e+09,
             2.5667645000000000e+09, 2.6124718840000000e+09,
             2.6428119620000000e+09, 2.6135666390000000e+09,
             2.2685760170000000e+09, 2.3818483010000000e+09,
             2.4722614470000000e+09, 2.5374706240000000e+09,
             2.5874933570000000e+09, 2.6213043880000000e+09,
             2.5962761400000000e+09, 2.2430174300000000e+09,
             2.3466755190000000e+09, 2.4268635090000000e+09,
             2.4899313250000000e+09, 2.5401256550000000e+09,
             2.5740588400000000e+09, 2.5586107670000000e+09,
             2.2148226650000000e+09, 2.3071147890000000e+09,
             2.3767924910000000e+09, 2.4327621410000000e+09,
             2.4838440410000000e+09, 2.5116360160000000e+09,
             2.5000035250000000e+09, 2.3825156830000000e+09,
             2.5232422080000000e+09, 2.6466739990000000e+09,
             2.7010269380000000e+09, 2.7236261950000000e+09,
             2.7380209590000000e+09, 2.7024499340000000e+09,
             2.4000021200000000e+09, 2.5814900720000000e+09,
             2.7676310900000000e+09, 2.7745219060000000e+09,
             2.7776258200000000e+09, 2.7933100880000000e+09,
             2.7521302130000000e+09, 2.3854063920000000e+09,
             2.5479288340000000e+09, 2.6862236800000000e+09,
             2.7503672330000000e+09, 2.7789756130000000e+09,
             2.8010698450000000e+09, 2.7646781660000000e+09,
             2.3562756340000000e+09, 2.4883657020000000e+09,
             2.6109883560000000e+09, 2.7068058660000000e+09,
             2.7630597060000000e+09, 2.7938231880000000e+09,
             2.7644711280000000e+09, 2.3319494460000000e+09,
             2.4555947210000000e+09, 2.5740717260000000e+09,
             2.6655487000000000e+09, 2.7321333640000000e+09,
             2.7678528450000000e+09, 2.7440133600000000e+09,
             2.3104901150000000e+09, 2.4235631830000000e+09,
             2.5281558960000000e+09, 2.6098097910000000e+09,
             2.6752549130000000e+09, 2.7134409350000000e+09,
             2.6983680850000000e+09, 2.2877626720000000e+09,
             2.3871663920000000e+09, 2.4751569840000000e+09,
             2.5458482370000000e+09, 2.6063624400000000e+09,
             2.6438414930000000e+09, 2.6332593530000000e+09,
             2.4182567980000000e+09, 2.5513981840000000e+09,
             2.7033955550000000e+09, 2.8425014480000000e+09,
             2.8981802470000000e+09, 2.9054430730000000e+09,
             2.8655692030000000e+09, 2.4337865670000000e+09,
             2.5887564020000000e+09, 2.7745219060000000e+09,
             2.9759319090000000e+09, 2.9840006620000000e+09,
             2.9704751990000000e+09, 2.9258112650000000e+09,
             2.4243200380000000e+09, 2.5798096500000000e+09,
             2.7503351330000000e+09, 2.8992836500000000e+09,
             2.9614993330000000e+09, 2.9737697120000000e+09,
             2.9335158660000000e+09, 2.4019236920000000e+09,
             2.5496308660000000e+09, 2.6909690460000000e+09,
             2.8233615250000000e+09, 2.9193876660000000e+09,
             2.9567491810000000e+09, 2.9265375180000000e+09,
             2.3907998930000000e+09, 2.5232999880000000e+09,
             2.6526221640000000e+09, 2.7772323860000000e+09,
             2.8746890230000000e+09, 2.9247507280000000e+09,
             2.9021231950000000e+09, 2.3772289480000000e+09,
             2.4957126620000000e+09, 2.6113857910000000e+09,
             2.7183426700000000e+09, 2.8072599510000000e+09,
             2.8615113570000000e+09, 2.8512325370000000e+09,
             2.3592258320000000e+09, 2.4633149010000000e+09,
             2.5623746360000000e+09, 2.6528229870000000e+09,
             2.7311995620000000e+09, 2.7805745140000000e+09,
             2.7800271680000000e+09, 2.4518426220000000e+09,
             2.5821676400000000e+09, 2.7275601010000000e+09,
             2.8985092620000000e+09, 3.0441417170000000e+09,
             3.0884601230000000e+09, 3.0383549350000000e+09,
             2.4621744170000000e+09, 2.6160393760000000e+09,
             2.7776258200000000e+09, 2.9840006620000000e+09,
             3.1947258030000000e+09, 3.1865780270000000e+09,
             3.1081941470000000e+09, 2.4596660410000000e+09,
             2.6135807230000000e+09, 2.7792485290000000e+09,
             2.9677172360000000e+09, 3.1227131630000000e+09,
             3.1642443640000000e+09, 3.1113082050000000e+09,
             2.4459619490000000e+09, 2.5915099660000000e+09,
             2.7529290550000000e+09, 2.9076807340000000e+09,
             3.0451147350000000e+09, 3.1194745630000000e+09,
             3.0935050620000000e+09, 2.4397409420000000e+09,
             2.5802218090000000e+09, 2.7216994640000000e+09,
             2.8607167530000000e+09, 2.9946487590000000e+09,
             3.0757116450000000e+09, 3.0646378950000000e+09,
             2.4354482340000000e+09, 2.5630385820000000e+09,
             2.6860779710000000e+09, 2.8049270940000000e+09,
             2.9239046870000000e+09, 3.0027719830000000e+09,
             3.0066003340000000e+09, 2.4241382820000000e+09,
             2.5366183740000000e+09, 2.6401837380000000e+09,
             2.7416472280000000e+09, 2.8434530020000000e+09,
             2.9133067970000000e+09, 2.9224271940000000e+09,
             2.4749218870000000e+09, 2.6031711670000000e+09,
             2.7467311710000000e+09, 2.9065936610000000e+09,
             3.0797327790000000e+09, 3.2021243380000000e+09,
             3.1949598820000000e+09, 2.4805703540000000e+09,
             2.6310416630000000e+09, 2.7933100880000000e+09,
             2.9704751990000000e+09, 3.1865780270000000e+09,
             3.3753857150000000e+09, 3.2980196840000000e+09,
             2.4839257320000000e+09, 2.6365219070000000e+09,
             2.8028460860000000e+09, 2.9839394220000000e+09,
             3.1829770780000000e+09, 3.3079779220000000e+09,
             3.2742976040000000e+09, 2.4787364020000000e+09,
             2.6237516880000000e+09, 2.7845611940000000e+09,
             2.9636014210000000e+09, 3.1235737680000000e+09,
             3.2302321820000000e+09, 3.2333423930000000e+09,
             2.4736981120000000e+09, 2.6162404540000000e+09,
             2.7702768750000000e+09, 2.9273154360000000e+09,
             3.0731369230000000e+09, 3.1829184860000000e+09,
             3.1972432170000000e+09, 2.4754036160000000e+09,
             2.6130926620000000e+09, 2.7497466320000000e+09,
             2.8784268470000000e+09, 3.0067574000000000e+09,
             3.1098825640000000e+09, 3.1303709570000000e+09,
             2.4746732390000000e+09, 2.5989334830000000e+09,
             2.7109447110000000e+09, 2.8165618540000000e+09,
             2.9281693620000000e+09, 3.0147663010000000e+09,
             3.0376793470000000e+09, 2.4500160270000000e+09,
             2.5702561620000000e+09, 2.7084578530000000e+09,
             2.8645804210000000e+09, 3.0245850760000000e+09,
             3.1636702930000000e+09, 3.2437297620000000e+09,
             2.4552309330000000e+09, 2.5982374860000000e+09,
             2.7521302130000000e+09, 2.9258112650000000e+09,
             3.1081941470000000e+09, 3.2980196840000000e+09,
             3.4219946490000000e+09, 2.4588387160000000e+09,
             2.6093872870000000e+09, 2.7714642050000000e+09,
             2.9475252740000000e+09, 3.1357516260000000e+09,
             3.3045547710000000e+09, 3.3599525590000000e+09,
             2.4592913660000000e+09, 2.6051141690000000e+09,
             2.7631323990000000e+09, 2.9364562040000000e+09,
             3.1174161260000000e+09, 3.2475593930000000e+09,
             3.2861953440000000e+09, 2.4587729590000000e+09,
             2.5994454820000000e+09, 2.7532594560000000e+09,
             2.9188743220000000e+09, 3.0761710340000000e+09,
             3.1997052310000000e+09, 3.2457002360000000e+09,
             2.4621748410000000e+09, 2.6041097000000000e+09,
             2.7445815790000000e+09, 2.8885599280000000e+09,
             3.0212086190000000e+09, 3.1314274250000000e+09,
             3.1795588430000000e+09, 2.4728835730000000e+09,
             2.5976680270000000e+09, 2.7206258690000000e+09,
             2.8383586160000000e+09, 2.9485154680000000e+09,
             3.0406710070000000e+09, 3.0838203620000000e+09,
             2.2281525660000000e+09, 2.2743353180000000e+09,
             2.3258544780000000e+09, 2.3654737600000000e+09,
             2.4033722220000000e+09, 2.4274233050000000e+09,
             2.4045490690000000e+09, 2.3028297860000000e+09,
             2.3500354870000000e+09, 2.3854063920000000e+09,
             2.4243200380000000e+09, 2.4596660410000000e+09,
             2.4839257320000000e+09, 2.4588387160000000e+09,
             2.3964151780000000e+09, 2.4021254700000000e+09,
             2.4165542120000000e+09, 2.4552309980000000e+09,
             2.4870460240000000e+09, 2.5081302270000000e+09,
             2.4828174200000000e+09, 2.3135279310000000e+09,
             2.3661394990000000e+09, 2.4047243910000000e+09,
             2.4481376890000000e+09, 2.4866373520000000e+09,
             2.5122365620000000e+09, 2.4869643330000000e+09,
             2.2496491000000000e+09, 2.3237775180000000e+09,
             2.3827374180000000e+09, 2.4308313120000000e+09,
             2.4724890440000000e+09, 2.5014899740000000e+09,
             2.4764988250000000e+09, 2.2247521480000000e+09,
             2.2977252480000000e+09, 2.3572129370000000e+09,
             2.4024233160000000e+09, 2.4434499050000000e+09,
             2.4696667970000000e+09, 2.4466146490000000e+09,
             2.1959051160000000e+09, 2.2624503660000000e+09,
             2.3145587550000000e+09, 2.3565085720000000e+09,
             2.3938885900000000e+09, 2.4177415230000000e+09,
             2.3985811900000000e+09, 2.3076862450000000e+09,
             2.3920020980000000e+09, 2.4578230610000000e+09,
             2.5104623170000000e+09, 2.5458366830000000e+09,
             2.5690106520000000e+09, 2.5463914410000000e+09,
             2.3572658100000000e+09, 2.4865092700000000e+09,
             2.5479288340000000e+09, 2.5798096500000000e+09,
             2.6135807230000000e+09, 2.6365219070000000e+09,
             2.6093872870000000e+09, 2.4021254700000000e+09,
             2.5930627430000000e+09, 2.6060458140000000e+09,
             2.6180683230000000e+09, 2.6492514040000000e+09,
             2.6667958080000000e+09, 2.6346521780000000e+09,
             2.3706652880000000e+09, 2.5045084920000000e+09,
             2.5703185120000000e+09, 2.6073491250000000e+09,
             2.6427065300000000e+09, 2.6665152730000000e+09,
             2.6348888680000000e+09, 2.3184673780000000e+09,
             2.4328225060000000e+09, 2.5224967170000000e+09,
             2.5782351430000000e+09, 2.6217706810000000e+09,
             2.6506096910000000e+09, 2.6231653820000000e+09,
             2.2924243560000000e+09, 2.4020438020000000e+09,
             2.4850837870000000e+09, 2.5412633890000000e+09,
             2.5841997310000000e+09, 2.6141336490000000e+09,
             2.5908486470000000e+09, 2.2681752530000000e+09,
             2.3644890980000000e+09, 2.4333353760000000e+09,
             2.4862917180000000e+09, 2.5277363450000000e+09,
             2.5522140810000000e+09, 2.5354916770000000e+09,
             2.3691321840000000e+09, 2.4857741420000000e+09,
             2.5788981160000000e+09, 2.6488478400000000e+09,
             2.6991937920000000e+09, 2.7224100160000000e+09,
             2.6977097490000000e+09, 2.3944025310000000e+09,
             2.5523593590000000e+09, 2.6862236800000000e+09,
             2.7503351330000000e+09, 2.7792485290000000e+09,
             2.8028460860000000e+09, 2.7714642050000000e+09,
             2.4165542120000000e+09, 2.6060458140000000e+09,
             2.8042601440000000e+09, 2.8157428260000000e+09,
             2.8220374050000000e+09, 2.8402777280000000e+09,
             2.8004109930000000e+09, 2.4095007500000000e+09,
             2.5748376020000000e+09, 2.7144298420000000e+09,
             2.7820874190000000e+09, 2.8125743360000000e+09,
             2.8346130760000000e+09, 2.7984838320000000e+09,
             2.3862476070000000e+09, 2.5172219160000000e+09,
             2.6359343420000000e+09, 2.7270441620000000e+09,
             2.7817752620000000e+09, 2.8126192030000000e+09,
             2.7848694810000000e+09, 2.3634913530000000e+09,
             2.4841097350000000e+09, 2.5954110710000000e+09,
             2.6783177180000000e+09, 2.7367040550000000e+09,
             2.7695679530000000e+09, 2.7491203930000000e+09,
             2.3448715430000000e+09, 2.4505062750000000e+09,
             2.5436778410000000e+09, 2.6150314620000000e+09,
             2.6703452550000000e+09, 2.6984192280000000e+09,
             2.6820815020000000e+09, 2.4184019650000000e+09,
             2.5412836810000000e+09, 2.6711937610000000e+09,
             2.7779436760000000e+09, 2.8498467990000000e+09,
             2.8928053900000000e+09, 2.8618555410000000e+09,
             2.4353572970000000e+09, 2.5862453980000000e+09,
             2.7503672330000000e+09, 2.8992836500000000e+09,
             2.9677172360000000e+09, 2.9839394220000000e+09,
             2.9475252740000000e+09, 2.4552309980000000e+09,
             2.6180683230000000e+09, 2.8157428260000000e+09,
             3.0307462010000000e+09, 3.0421146310000000e+09,
             3.0299579550000000e+09, 2.9861997340000000e+09,
             2.4535275840000000e+09, 2.6121857520000000e+09,
             2.7902134880000000e+09, 2.9415953390000000e+09,
             3.0060240220000000e+09, 3.0186145660000000e+09,
             2.9783012730000000e+09, 2.4381799650000000e+09,
             2.5885862000000000e+09, 2.7262131240000000e+09,
             2.8528766600000000e+09, 2.9466506290000000e+09,
             2.9852842940000000e+09, 2.9572359530000000e+09,
             2.4307779810000000e+09, 2.5618326750000000e+09,
             2.6841229630000000e+09, 2.7991903870000000e+09,
             2.8878667010000000e+09, 2.9341287440000000e+09,
             2.9156670620000000e+09, 2.4211942000000000e+09,
             2.5320654030000000e+09, 2.6365429070000000e+09,
             2.7332216600000000e+09, 2.8105562420000000e+09,
             2.8530213220000000e+09, 2.8408168610000000e+09,
             2.4604927400000000e+09, 2.5847683190000000e+09,
             2.7238000230000000e+09, 2.8705122780000000e+09,
             2.9837512110000000e+09, 3.0471975990000000e+09,
             3.0366678800000000e+09, 2.4718369250000000e+09,
             2.6203406510000000e+09, 2.7789756130000000e+09,
             2.9614993330000000e+09, 3.1227131630000000e+09,
             3.1829770780000000e+09, 3.1357516260000000e+09,
             2.4870460240000000e+09, 2.6492514040000000e+09,
             2.8220374050000000e+09, 3.0421146310000000e+09,
             3.2661876680000000e+09, 3.2614221070000000e+09,
             3.1831122990000000e+09, 2.4931482130000000e+09,
             2.6504225270000000e+09, 2.8234688890000000e+09,
             3.0194105450000000e+09, 3.1777374720000000e+09,
             3.2209339210000000e+09, 3.1693682210000000e+09,
             2.4874414490000000e+09, 2.6353790370000000e+09,
             2.7964737520000000e+09, 2.9471191920000000e+09,
             3.0811541800000000e+09, 3.1571250970000000e+09,
             3.1354287710000000e+09, 2.4853062580000000e+09,
             2.6265735050000000e+09, 2.7624878710000000e+09,
             2.8922092980000000e+09, 3.0164675130000000e+09,
             3.0937194810000000e+09, 3.0876680670000000e+09,
             2.4878394810000000e+09, 2.6086978860000000e+09,
             2.7213289470000000e+09, 2.8289113410000000e+09,
             2.9353813640000000e+09, 3.0021682340000000e+09,
             3.0041308140000000e+09, 2.4913454310000000e+09,
             2.6151938230000000e+09, 2.7532273690000000e+09,
             2.9054903710000000e+09, 3.0535813480000000e+09,
             3.1483322190000000e+09, 3.1605564190000000e+09,
             2.4974643580000000e+09, 2.6439095200000000e+09,
             2.8010698450000000e+09, 2.9737697120000000e+09,
             3.1642443640000000e+09, 3.3079779220000000e+09,
             3.3045547710000000e+09, 2.5081302270000000e+09,
             2.6667958080000000e+09, 2.8402777280000000e+09,
             3.0299579550000000e+09, 3.2614221070000000e+09,
             3.4601471650000000e+09, 3.3853291350000000e+09,
             2.5195037160000000e+09, 2.6756876590000000e+09,
             2.8487159620000000e+09, 3.0380777850000000e+09,
             3.2420824890000000e+09, 3.3720523790000000e+09,
             3.3424307730000000e+09, 2.5227330830000000e+09,
             2.6690198050000000e+09, 2.8300679300000000e+09,
             3.0060945030000000e+09, 3.1647164060000000e+09,
             3.2742646620000000e+09, 3.2841891450000000e+09,
             2.5208617120000000e+09, 2.6646024570000000e+09,
             2.8134616960000000e+09, 2.9628051710000000e+09,
             3.0997365190000000e+09, 3.2068287740000000e+09,
             3.2274690550000000e+09, 2.5317782830000000e+09,
             2.6618722330000000e+09, 2.7875456550000000e+09,
             2.9058714410000000e+09, 3.0224906980000000e+09,
             3.1133173780000000e+09, 3.1333866000000000e+09,
             2.4662266110000000e+09, 2.5858428050000000e+09,
             2.7229144300000000e+09, 2.8736919180000000e+09,
             3.0250203390000000e+09, 3.1443492720000000e+09,
             3.1933743520000000e+09, 2.4733055920000000e+09,
             2.6120051470000000e+09, 2.7646781660000000e+09,
             2.9335158660000000e+09, 3.1113082050000000e+09,
             3.2742976040000000e+09, 3.3599525590000000e+09,
             2.4828174200000000e+09, 2.6346521780000000e+09,
             2.8004109930000000e+09, 2.9861997340000000e+09,
             3.1831122990000000e+09, 3.3853291350000000e+09,
             3.5130398580000000e+09, 2.4946874440000000e+09,
             2.6484639050000000e+09, 2.8178765800000000e+09,
             3.0018689400000000e+09, 3.1951403200000000e+09,
             3.3685241800000000e+09, 3.4290426150000000e+09,
             2.5029169900000000e+09, 2.6501524830000000e+09,
             2.8082246170000000e+09, 2.9786637730000000e+09,
             3.1582012670000000e+09, 3.2916775840000000e+09,
             3.3373775670000000e+09, 2.5043171600000000e+09,
             2.6467496140000000e+09, 2.7954381880000000e+09,
             2.9538993820000000e+09, 3.1027226350000000e+09,
             3.2225068750000000e+09, 3.2753220130000000e+09,
             2.5168953640000000e+09, 2.6511804450000000e+09,
             2.7806248350000000e+09, 2.9152508760000000e+09,
             3.0368465070000000e+09, 3.1333229530000000e+09,
             3.1807450330000000e+09, 2.2004505600000000e+09,
             2.2438548600000000e+09, 2.2978773660000000e+09,
             2.3491675210000000e+09, 2.3909890950000000e+09,
             2.4158094270000000e+09, 2.3979730590000000e+09,
             2.2366054890000000e+09, 2.2957489340000000e+09,
             2.3562756340000000e+09, 2.4019236920000000e+09,
             2.4459619490000000e+09, 2.4787364020000000e+09,
             2.4592913660000000e+09, 2.3135279310000000e+09,
             2.3706652880000000e+09, 2.4095007500000000e+09,
             2.4535275840000000e+09, 2.4931482130000000e+09,
             2.5195037160000000e+09, 2.4946874440000000e+09,
             2.4120990390000000e+09, 2.4185383090000000e+09,
             2.4357728240000000e+09, 2.4769900610000000e+09,
             2.5111165730000000e+09, 2.5321572380000000e+09,
             2.5061942660000000e+09, 2.3301299730000000e+09,
             2.3811327520000000e+09, 2.4184173230000000e+09,
             2.4606163710000000e+09, 2.4973666170000000e+09,
             2.5216218890000000e+09, 2.4977149740000000e+09,
             2.2666947870000000e+09, 2.3383418060000000e+09,
             2.3917352680000000e+09, 2.4340591930000000e+09,
             2.4709508680000000e+09, 2.4972928200000000e+09,
             2.4729331850000000e+09, 2.2438380100000000e+09,
             2.3095713900000000e+09, 2.3595739650000000e+09,
             2.3969374100000000e+09, 2.4306936020000000e+09,
             2.4489528240000000e+09, 2.4253120010000000e+09,
             2.2793308340000000e+09, 2.3592663420000000e+09,
             2.4226148410000000e+09, 2.4811956340000000e+09,
             2.5280870290000000e+09, 2.5554077250000000e+09,
             2.5360548060000000e+09, 2.3137839420000000e+09,
             2.4125703940000000e+09, 2.4883657020000000e+09,
             2.5496308660000000e+09, 2.5915099660000000e+09,
             2.6237516880000000e+09, 2.6051141690000000e+09,
             2.3661394990000000e+09, 2.5045084920000000e+09,
             2.5748376020000000e+09, 2.6121857520000000e+09,
             2.6504225270000000e+09, 2.6756876590000000e+09,
             2.6484639050000000e+09, 2.4185383090000000e+09,
             2.6129480860000000e+09, 2.6286259700000000e+09,
             2.6431785560000000e+09, 2.6762344890000000e+09,
             2.6939292650000000e+09, 2.6611611320000000e+09,
             2.3948857150000000e+09, 2.5254332950000000e+09,
             2.5867881200000000e+09, 2.6219758980000000e+09,
             2.6561899450000000e+09, 2.6783874340000000e+09,
             2.6487666040000000e+09, 2.3429417610000000e+09,
             2.4538355510000000e+09, 2.5360061300000000e+09,
             2.5841517030000000e+09, 2.6215315700000000e+09,
             2.6482711680000000e+09, 2.6218783480000000e+09,
             2.3185262210000000e+09, 2.4208709450000000e+09,
             2.4931224910000000e+09, 2.5394978130000000e+09,
             2.5742376250000000e+09, 2.5951753860000000e+09,
             2.5709386880000000e+09, 2.3500861250000000e+09,
             2.4538346720000000e+09, 2.5453303480000000e+09,
             2.6134514540000000e+09, 2.6712593740000000e+09,
             2.7085132320000000e+09, 2.6892017360000000e+09,
             2.3759216270000000e+09, 2.5069187040000000e+09,
             2.6109883560000000e+09, 2.6909690460000000e+09,
             2.7529290550000000e+09, 2.7845611940000000e+09,
             2.7631323990000000e+09, 2.4047243910000000e+09,
             2.5703185120000000e+09, 2.7144298420000000e+09,
             2.7902134880000000e+09, 2.8234688890000000e+09,
             2.8487159620000000e+09, 2.8178765800000000e+09,
             2.4357728240000000e+09, 2.6286259700000000e+09,
             2.8342142890000000e+09, 2.8485084050000000e+09,
             2.8547406380000000e+09, 2.8734890830000000e+09,
             2.8332951410000000e+09, 2.4379840230000000e+09,
             2.6052708360000000e+09, 2.7398883900000000e+09,
             2.8019388460000000e+09, 2.8309847350000000e+09,
             2.8512047620000000e+09, 2.8178183290000000e+09,
             2.4182171580000000e+09, 2.5468427800000000e+09,
             2.6568536690000000e+09, 2.7397343050000000e+09,
             2.7865453800000000e+09, 2.8145284430000000e+09,
             2.7884402920000000e+09, 2.3985320380000000e+09,
             2.5114005050000000e+09, 2.6114494480000000e+09,
             2.6840114200000000e+09, 2.7325460980000000e+09,
             2.7555059730000000e+09, 2.7332838420000000e+09,
             2.4068933640000000e+09, 2.5236351340000000e+09,
             2.6412971900000000e+09, 2.7428264650000000e+09,
             2.8148690200000000e+09, 2.8680352690000000e+09,
             2.8556007030000000e+09, 2.4274183400000000e+09,
             2.5667645000000000e+09, 2.7068058660000000e+09,
             2.8233615250000000e+09, 2.9076807340000000e+09,
             2.9636014210000000e+09, 2.9364562040000000e+09,
             2.4481376890000000e+09, 2.6073491250000000e+09,
             2.7820874190000000e+09, 2.9415953390000000e+09,
             3.0194105450000000e+09, 3.0380777850000000e+09,
             3.0018689400000000e+09, 2.4769900610000000e+09,
             2.6431785560000000e+09, 2.8485084050000000e+09,
             3.0702768110000000e+09, 3.0823032890000000e+09,
             3.0692969150000000e+09, 3.0258069710000000e+09,
             2.4852082950000000e+09, 2.6458276000000000e+09,
             2.8224975000000000e+09, 2.9681374250000000e+09,
             3.0293751870000000e+09, 3.0414563650000000e+09,
             3.0030698560000000e+09, 2.4733534860000000e+09,
             2.6248726200000000e+09, 2.7551532580000000e+09,
             2.8707831110000000e+09, 2.9548474790000000e+09,
             2.9906767090000000e+09, 2.9664289150000000e+09,
             2.4725854000000000e+09, 2.5961327600000000e+09,
             2.7069696950000000e+09, 2.8102975150000000e+09,
             2.8870958550000000e+09, 2.9217353030000000e+09,
             2.9019093920000000e+09, 2.4568166060000000e+09,
             2.5751746880000000e+09, 2.7095699560000000e+09,
             2.8419408940000000e+09, 2.9507793520000000e+09,
             3.0150141510000000e+09, 3.0124823190000000e+09,
             2.4707785170000000e+09, 2.6124718840000000e+09,
             2.7630597060000000e+09, 2.9193876660000000e+09,
             3.0451147350000000e+09, 3.1235737680000000e+09,
             3.1174161260000000e+09, 2.4866373520000000e+09,
             2.6427065300000000e+09, 2.8125743360000000e+09,
             3.0060240220000000e+09, 3.1777374720000000e+09,
             3.2420824890000000e+09, 3.1951403200000000e+09,
             2.5111165730000000e+09, 2.6762344890000000e+09,
             2.8547406380000000e+09, 3.0823032890000000e+09,
             3.3093298450000000e+09, 3.3050481650000000e+09,
             3.2269725730000000e+09, 2.5268699560000000e+09,
             2.6843996610000000e+09, 2.8559952650000000e+09,
             3.0469492860000000e+09, 3.2030987290000000e+09,
             3.2473960440000000e+09, 3.1980375020000000e+09,
             2.5233971110000000e+09, 2.6721944510000000e+09,
             2.8266561980000000e+09, 2.9682108520000000e+09,
             3.0913835460000000e+09, 3.1637662980000000e+09,
             3.1463081140000000e+09, 2.5277184870000000e+09,
             2.6619994100000000e+09, 2.7874872470000000e+09,
             2.9055296210000000e+09, 3.0168165140000000e+09,
             3.0805924240000000e+09, 3.0727879790000000e+09,
             2.4879654400000000e+09, 2.6082498750000000e+09,
             2.7431948760000000e+09, 2.8908212140000000e+09,
             3.0289486870000000e+09, 3.1202110730000000e+09,
             3.1327494680000000e+09, 2.5012839420000000e+09,
             2.6428119620000000e+09, 2.7938231880000000e+09,
             2.9567491810000000e+09, 3.1194745630000000e+09,
             3.2302321820000000e+09, 3.2475593930000000e+09,
             2.5122365620000000e+09, 2.6665152730000000e+09,
             2.8346130760000000e+09, 3.0186145660000000e+09,
             3.2209339210000000e+09, 3.3720523790000000e+09,
             3.3685241800000000e+09, 2.5321572380000000e+09,
             2.6939292650000000e+09, 2.8734890830000000e+09,
             3.0692969150000000e+09, 3.3050481650000000e+09,
             3.5059703550000000e+09, 3.4318123870000000e+09,
             2.5520226920000000e+09, 2.7094261930000000e+09,
             2.8807174550000000e+09, 3.0655052090000000e+09,
             3.2659591680000000e+09, 3.3985587690000000e+09,
             3.3745056440000000e+09, 2.5574425840000000e+09,
             2.7044939330000000e+09, 2.8597037040000000e+09,
             3.0261161780000000e+09, 3.1745411930000000e+09,
             3.2802952930000000e+09, 3.2949801880000000e+09,
             2.5626250930000000e+09, 2.6988074970000000e+09,
             2.8362632510000000e+09, 2.9746736520000000e+09,
             3.0986994580000000e+09, 3.1920467450000000e+09,
             3.2109433250000000e+09, 2.4632421420000000e+09,
             2.5814681650000000e+09, 2.7166063560000000e+09,
             2.8642255810000000e+09, 3.0131576890000000e+09,
             3.1273501990000000e+09, 3.1716722040000000e+09,
             2.4755680010000000e+09, 2.6135666390000000e+09,
             2.7644711280000000e+09, 2.9265375180000000e+09,
             3.0935050620000000e+09, 3.2333423930000000e+09,
             3.2861953440000000e+09, 2.4869643330000000e+09,
             2.6348888680000000e+09, 2.7984838320000000e+09,
             2.9783012730000000e+09, 3.1693682210000000e+09,
             3.3424307730000000e+09, 3.4290426150000000e+09,
             2.5061942660000000e+09, 2.6611611320000000e+09,
             2.8332951410000000e+09, 3.0258069710000000e+09,
             3.2269725730000000e+09, 3.4318123870000000e+09,
             3.5548479860000000e+09, 2.5260879510000000e+09,
             2.6805550330000000e+09, 2.8494235880000000e+09,
             3.0294241460000000e+09, 3.2179208180000000e+09,
             3.3878368440000000e+09, 3.4525086390000000e+09,
             2.5360804540000000e+09, 2.6847971710000000e+09,
             2.8373589110000000e+09, 2.9962104760000000e+09,
             3.1612526360000000e+09, 3.2873752870000000e+09,
             3.3386715750000000e+09, 2.5466930790000000e+09,
             2.6802030270000000e+09, 2.8132823300000000e+09,
             2.9586862490000000e+09, 3.0926582770000000e+09,
             3.1962510910000000e+09, 3.2481467540000000e+09,
             2.1693392700000000e+09, 2.2176693740000000e+09,
             2.2754988930000000e+09, 2.3337628480000000e+09,
             2.3819436440000000e+09, 2.4133471830000000e+09,
             2.3987830980000000e+09, 2.2115518750000000e+09,
             2.2685760170000000e+09, 2.3319494460000000e+09,
             2.3907998930000000e+09, 2.4397409420000000e+09,
             2.4736981120000000e+09, 2.4587729590000000e+09,
             2.2496491000000000e+09, 2.3184673780000000e+09,
             2.3862476070000000e+09, 2.4381799650000000e+09,
             2.4874414490000000e+09, 2.5227330830000000e+09,
             2.5029169900000000e+09, 2.3301299730000000e+09,
             2.3948857150000000e+09, 2.4379840230000000e+09,
             2.4852082950000000e+09, 2.5268699560000000e+09,
             2.5520226920000000e+09, 2.5260879510000000e+09,
             2.4344512900000000e+09, 2.4414658370000000e+09,
             2.4579439830000000e+09, 2.4984648090000000e+09,
             2.5310772340000000e+09, 2.5506193870000000e+09,
             2.5261828690000000e+09, 2.3513883290000000e+09,
             2.4003011160000000e+09, 2.4342009400000000e+09,
             2.4722072530000000e+09, 2.5042888050000000e+09,
             2.5268578670000000e+09, 2.5035123770000000e+09,
             2.2896657030000000e+09, 2.3543069640000000e+09,
             2.3999893360000000e+09, 2.4351147100000000e+09,
             2.4660020280000000e+09, 2.4849119220000000e+09,
             2.4602472700000000e+09, 2.2469450640000000e+09,
             2.3238975300000000e+09, 2.3912352910000000e+09,
             2.4536375530000000e+09, 2.5101575940000000e+09,
             2.5488238020000000e+09, 2.5371403520000000e+09,
             2.2876413370000000e+09, 2.3818483010000000e+09,
             2.4555947210000000e+09, 2.5232999880000000e+09,
             2.5802218090000000e+09, 2.6162404540000000e+09,
             2.5994454820000000e+09, 2.3237775180000000e+09,
             2.4328225060000000e+09, 2.5172219160000000e+09,
             2.5885862000000000e+09, 2.6353790370000000e+09,
             2.6690198050000000e+09, 2.6501524830000000e+09,
             2.3811327520000000e+09, 2.5254332950000000e+09,
             2.6052708360000000e+09, 2.6458276000000000e+09,
             2.6843996610000000e+09, 2.7094261930000000e+09,
             2.6805550330000000e+09, 2.4414658370000000e+09,
             2.6374016140000000e+09, 2.6518553320000000e+09,
             2.6642646460000000e+09, 2.6958079430000000e+09,
             2.7117163920000000e+09, 2.6809619270000000e+09,
             2.4209678060000000e+09, 2.5491841640000000e+09,
             2.6026793950000000e+09, 2.6324964580000000e+09,
             2.6614727210000000e+09, 2.6821638690000000e+09,
             2.6542448280000000e+09, 2.3714209380000000e+09,
             2.4735341000000000e+09, 2.5456798640000000e+09,
             2.5853838760000000e+09, 2.6158411590000000e+09,
             2.6343910850000000e+09, 2.6080571920000000e+09,
             2.3169518170000000e+09, 2.4112038950000000e+09,
             2.5022563200000000e+09, 2.5750558330000000e+09,
             2.6394418490000000e+09, 2.6900132370000000e+09,
             2.6816787930000000e+09, 2.3536601910000000e+09,
             2.4722614470000000e+09, 2.5740717260000000e+09,
             2.6526221640000000e+09, 2.7216994640000000e+09,
             2.7702768750000000e+09, 2.7532594560000000e+09,
             2.3827374180000000e+09, 2.5224967170000000e+09,
             2.6359343420000000e+09, 2.7262131240000000e+09,
             2.7964737520000000e+09, 2.8300679300000000e+09,
             2.8082246170000000e+09, 2.4184173230000000e+09,
             2.5867881200000000e+09, 2.7398883900000000e+09,
             2.8224975000000000e+09, 2.8559952650000000e+09,
             2.8807174550000000e+09, 2.8494235880000000e+09,
             2.4579439830000000e+09, 2.6518553320000000e+09,
             2.8558429460000000e+09, 2.8679339810000000e+09,
             2.8720546760000000e+09, 2.8886284780000000e+09,
             2.8507612770000000e+09, 2.4637278400000000e+09,
             2.6314228640000000e+09, 2.7576784260000000e+09,
             2.8102628060000000e+09, 2.8324871440000000e+09,
             2.8511713670000000e+09, 2.8192509190000000e+09,
             2.4500792710000000e+09, 2.5699991860000000e+09,
             2.6680278710000000e+09, 2.7396350140000000e+09,
             2.7778164690000000e+09, 2.7964855770000000e+09,
             2.7697418560000000e+09, 2.3757213340000000e+09,
             2.4833626580000000e+09, 2.5932236600000000e+09,
             2.6916740900000000e+09, 2.7668846850000000e+09,
             2.8261816120000000e+09, 2.8319681050000000e+09,
             2.4059911250000000e+09, 2.5374706240000000e+09,
             2.6655487000000000e+09, 2.7772323860000000e+09,
             2.8607167530000000e+09, 2.9273154360000000e+09,
             2.9188743220000000e+09, 2.4308313120000000e+09,
             2.5782351430000000e+09, 2.7270441620000000e+09,
             2.8528766600000000e+09, 2.9471191920000000e+09,
             3.0060945030000000e+09, 2.9786637730000000e+09,
             2.4606163710000000e+09, 2.6219758980000000e+09,
             2.8019388460000000e+09, 2.9681374250000000e+09,
             3.0469492860000000e+09, 3.0655052090000000e+09,
             3.0294241460000000e+09, 2.4984648090000000e+09,
             2.6642646460000000e+09, 2.8679339810000000e+09,
             3.0838560070000000e+09, 3.0948279660000000e+09,
             3.0805327960000000e+09, 3.0388198050000000e+09,
             2.5089161620000000e+09, 2.6703601020000000e+09,
             2.8389615540000000e+09, 2.9761677040000000e+09,
             3.0268498220000000e+09, 3.0360698020000000e+09,
             2.9980922090000000e+09, 2.5040818640000000e+09,
             2.6472376240000000e+09, 2.7667670270000000e+09,
             2.8693599150000000e+09, 2.9425364090000000e+09,
             2.9663848940000000e+09, 2.9402412550000000e+09,
             2.4287207210000000e+09, 2.5409356030000000e+09,
             2.6665923340000000e+09, 2.7886127230000000e+09,
             2.8944274160000000e+09, 2.9630804460000000e+09,
             2.9723854670000000e+09, 2.4535735270000000e+09,
             2.5874933570000000e+09, 2.7321333640000000e+09,
             2.8746890230000000e+09, 2.9946487590000000e+09,
             3.0731369230000000e+09, 3.0761710340000000e+09,
             2.4724890440000000e+09, 2.6217706810000000e+09,
             2.7817752620000000e+09, 2.9466506290000000e+09,
             3.0811541800000000e+09, 3.1647164060000000e+09,
             3.1582012670000000e+09, 2.4973666170000000e+09,
             2.6561899450000000e+09, 2.8309847350000000e+09,
             3.0293751870000000e+09, 3.2030987290000000e+09,
             3.2659591680000000e+09, 3.2179208180000000e+09,
             2.5310772340000000e+09, 2.6958079430000000e+09,
             2.8720546760000000e+09, 3.0948279660000000e+09,
             3.3168924650000000e+09, 3.3119725180000000e+09,
             3.2360644190000000e+09, 2.5489227670000000e+09,
             2.7079472170000000e+09, 2.8732932520000000e+09,
             3.0526777850000000e+09, 3.1968834930000000e+09,
             3.2363547470000000e+09, 3.1887101350000000e+09,
             2.5537323370000000e+09, 2.6944307960000000e+09,
             2.8357953970000000e+09, 2.9646967790000000e+09,
             3.0749822260000000e+09, 3.1328661660000000e+09,
             3.1123506730000000e+09, 2.4658911980000000e+09,
             2.5785636920000000e+09, 2.7081258510000000e+09,
             2.8459996990000000e+09, 2.9763618800000000e+09,
             3.0680813830000000e+09, 3.0851412640000000e+09,
             2.4837543550000000e+09, 2.6213043880000000e+09,
             2.7678528450000000e+09, 2.9247507280000000e+09,
             3.0757116450000000e+09, 3.1829184860000000e+09,
             3.1997052310000000e+09, 2.5014899740000000e+09,
             2.6506096910000000e+09, 2.8126192030000000e+09,
             2.9852842940000000e+09, 3.1571250970000000e+09,
             3.2742646620000000e+09, 3.2916775840000000e+09,
             2.5216218890000000e+09, 2.6783874340000000e+09,
             2.8512047620000000e+09, 3.0414563650000000e+09,
             3.2473960440000000e+09, 3.3985587690000000e+09,
             3.3878368440000000e+09, 2.5506193870000000e+09,
             2.7117163920000000e+09, 2.8886284780000000e+09,
             3.0805327960000000e+09, 3.3119725180000000e+09,
             3.5087048750000000e+09, 3.4362073670000000e+09,
             2.5719056300000000e+09, 2.7309945860000000e+09,
             2.8965401760000000e+09, 3.0688598580000000e+09,
             3.2540730430000000e+09, 3.3791208730000000e+09,
             3.3594850570000000e+09, 2.5875972260000000e+09,
             2.7261704610000000e+09, 2.8652773270000000e+09,
             3.0167271500000000e+09, 3.1487414710000000e+09,
             3.2389033810000000e+09, 3.2519054040000000e+09,
             2.4466892540000000e+09, 2.5593110500000000e+09,
             2.6881688480000000e+09, 2.8315928860000000e+09,
             2.9747972880000000e+09, 3.0811527030000000e+09,
             3.1263383610000000e+09, 2.4597616750000000e+09,
             2.5962761400000000e+09, 2.7440133600000000e+09,
             2.9021231950000000e+09, 3.0646378950000000e+09,
             3.1972432170000000e+09, 3.2457002360000000e+09,
             2.4764988250000000e+09, 2.6231653820000000e+09,
             2.7848694810000000e+09, 2.9572359530000000e+09,
             3.1354287710000000e+09, 3.2841891450000000e+09,
             3.3373775670000000e+09, 2.4977149740000000e+09,
             2.6487666040000000e+09, 2.8178183290000000e+09,
             3.0030698560000000e+09, 3.1980375020000000e+09,
             3.3745056440000000e+09, 3.4525086390000000e+09,
             2.5261828690000000e+09, 2.6809619270000000e+09,
             2.8507612770000000e+09, 3.0388198050000000e+09,
             3.2360644190000000e+09, 3.4362073670000000e+09,
             3.5542706550000000e+09, 2.5479585710000000e+09,
             2.7039077410000000e+09, 2.8676337390000000e+09,
             3.0359425060000000e+09, 3.2074430510000000e+09,
             3.3619588110000000e+09, 3.4295192450000000e+09,
             2.5696145740000000e+09, 2.7100193870000000e+09,
             2.8457802340000000e+09, 2.9874420870000000e+09,
             3.1305696150000000e+09, 3.2375113530000000e+09,
             3.2868015830000000e+09, 2137041773., 2.1878945910000000e+09,
             2.2502970240000000e+09, 2.3114556080000000e+09,
             2.3654590830000000e+09, 2.4041513480000000e+09,
             2.3998390580000000e+09, 2.1808383280000000e+09,
             2.2430174300000000e+09, 2.3104901150000000e+09,
             2.3772289480000000e+09, 2.4354482340000000e+09,
             2.4754036160000000e+09, 2.4621748410000000e+09,
             2.2247521480000000e+09, 2.2924243560000000e+09,
             2.3634913530000000e+09, 2.4307779810000000e+09,
             2.4853062580000000e+09, 2.5208617120000000e+09,
             2.5043171600000000e+09, 2.2666947870000000e+09,
             2.3429417610000000e+09, 2.4182171580000000e+09,
             2.4733534860000000e+09, 2.5233971110000000e+09,
             2.5574425840000000e+09, 2.5360804540000000e+09,
             2.3513883290000000e+09, 2.4209678060000000e+09,
             2.4637278400000000e+09, 2.5089161620000000e+09,
             2.5489227670000000e+09, 2.5719056300000000e+09,
             2.5479585710000000e+09, 2.4562525940000000e+09,
             2.4633952380000000e+09, 2.4755636320000000e+09,
             2.5120371320000000e+09, 2.5399898810000000e+09,
             2.5579434960000000e+09, 2.5344245260000000e+09,
             2.3753838710000000e+09, 2.4150683130000000e+09,
             2.4417058680000000e+09, 2.4732929790000000e+09,
             2.5006737480000000e+09, 2.5166313730000000e+09,
             2.4922578560000000e+09, 2.2141134910000000e+09,
             2.2867993400000000e+09, 2.3564718050000000e+09,
             2.4221952170000000e+09, 2.4850366810000000e+09,
             2.5340210750000000e+09, 2.5304782690000000e+09,
             2.2548011840000000e+09, 2.3466755190000000e+09,
             2.4235631830000000e+09, 2.4957126620000000e+09,
             2.5630385820000000e+09, 2.6130926620000000e+09,
             2.6041097000000000e+09, 2.2977252480000000e+09,
             2.4020438020000000e+09, 2.4841097350000000e+09,
             2.5618326750000000e+09, 2.6265735050000000e+09,
             2.6646024570000000e+09, 2.6467496140000000e+09,
             2.3383418060000000e+09, 2.4538355510000000e+09,
             2.5468427800000000e+09, 2.6248726200000000e+09,
             2.6721944510000000e+09, 2.7044939330000000e+09,
             2.6847971710000000e+09, 2.4003011160000000e+09,
             2.5491841640000000e+09, 2.6314228640000000e+09,
             2.6703601020000000e+09, 2.7079472170000000e+09,
             2.7309945860000000e+09, 2.7039077410000000e+09,
             2.4633952380000000e+09, 2.6612061450000000e+09,
             2.6717315620000000e+09, 2.6792308610000000e+09,
             2.7051251010000000e+09, 2.7191486240000000e+09,
             2.6897387410000000e+09, 2.4500440430000000e+09,
             2.5699016810000000e+09, 2.6126630540000000e+09,
             2.6347054480000000e+09, 2.6576291430000000e+09,
             2.6712100310000000e+09, 2.6432159940000000e+09,
             2.2791030310000000e+09, 2.3672301980000000e+09,
             2.4556536300000000e+09, 2.5320745090000000e+09,
             2.5996947460000000e+09, 2.6564417090000000e+09,
             2.6629345050000000e+09, 2.3171794730000000e+09,
             2.4268635090000000e+09, 2.5281558960000000e+09,
             2.6113857910000000e+09, 2.6860779710000000e+09,
             2.7497466320000000e+09, 2.7445815790000000e+09,
             2.3572129370000000e+09, 2.4850837870000000e+09,
             2.5954110710000000e+09, 2.6841229630000000e+09,
             2.7624878710000000e+09, 2.8134616960000000e+09,
             2.7954381880000000e+09, 2.3917352680000000e+09,
             2.5360061300000000e+09, 2.6568536690000000e+09,
             2.7551532580000000e+09, 2.8266561980000000e+09,
             2.8597037040000000e+09, 2.8373589110000000e+09,
             2.4342009400000000e+09, 2.6026793950000000e+09,
             2.7576784260000000e+09, 2.8389615540000000e+09,
             2.8732932520000000e+09, 2.8965401760000000e+09,
             2.8676337390000000e+09, 2.4755636320000000e+09,
             2.6717315620000000e+09, 2.8691117560000000e+09,
             2.8775845480000000e+09, 2.8756490680000000e+09,
             2.8902559530000000e+09, 2.8522106050000000e+09,
             2.4910561360000000e+09, 2.6498098460000000e+09,
             2.7663127440000000e+09, 2.8075109710000000e+09,
             2.8226359750000000e+09, 2.8329408750000000e+09,
             2.8000136100000000e+09, 2.3386341170000000e+09,
             2.4337164040000000e+09, 2.5364027420000000e+09,
             2.6326837880000000e+09, 2.7110163660000000e+09,
             2.7724352050000000e+09, 2.7900636720000000e+09,
             2.3677643120000000e+09, 2.4899313250000000e+09,
             2.6098097910000000e+09, 2.7183426700000000e+09,
             2.8049270940000000e+09, 2.8784268470000000e+09,
             2.8885599280000000e+09, 2.4024233160000000e+09,
             2.5412633890000000e+09, 2.6783177180000000e+09,
             2.7991903870000000e+09, 2.8922092980000000e+09,
             2.9628051710000000e+09, 2.9538993820000000e+09,
             2.4340591930000000e+09, 2.5841517030000000e+09,
             2.7397343050000000e+09, 2.8707831110000000e+09,
             2.9682108520000000e+09, 3.0261161780000000e+09,
             2.9962104760000000e+09, 2.4722072530000000e+09,
             2.6324964580000000e+09, 2.8102628060000000e+09,
             2.9761677040000000e+09, 3.0526777850000000e+09,
             3.0688598580000000e+09, 3.0359425060000000e+09,
             2.5120371320000000e+09, 2.6792308610000000e+09,
             2.8775845480000000e+09, 3.0823836470000000e+09,
             3.0864464870000000e+09, 3.0701032870000000e+09,
             3.0276060790000000e+09, 2.5332041570000000e+09,
             2.6860357740000000e+09, 2.8413589380000000e+09,
             2.9645838940000000e+09, 3.0051363250000000e+09,
             3.0039637300000000e+09, 2.9651144460000000e+09,
             2.3884430950000000e+09, 2.4942583340000000e+09,
             2.6065368500000000e+09, 2.7214364990000000e+09,
             2.8235896110000000e+09, 2.8947390250000000e+09,
             2.9100646830000000e+09, 2.4134487240000000e+09,
             2.5401256550000000e+09, 2.6752549130000000e+09,
             2.8072599510000000e+09, 2.9239046870000000e+09,
             3.0067574000000000e+09, 3.0212086190000000e+09,
             2.4434499050000000e+09, 2.5841997310000000e+09,
             2.7367040550000000e+09, 2.8878667010000000e+09,
             3.0164675130000000e+09, 3.0997365190000000e+09,
             3.1027226350000000e+09, 2.4709508680000000e+09,
             2.6215315700000000e+09, 2.7865453800000000e+09,
             2.9548474790000000e+09, 3.0913835460000000e+09,
             3.1745411930000000e+09, 3.1612526360000000e+09,
             2.5042888050000000e+09, 2.6614727210000000e+09,
             2.8324871440000000e+09, 3.0268498220000000e+09,
             3.1968834930000000e+09, 3.2540730430000000e+09,
             3.2074430510000000e+09, 2.5399898810000000e+09,
             2.7051251010000000e+09, 2.8756490680000000e+09,
             3.0864464870000000e+09, 3.2919262950000000e+09,
             3.2822145920000000e+09, 3.2072309550000000e+09,
             2.5692922480000000e+09, 2.7187217070000000e+09,
             2.8677892100000000e+09, 3.0307668130000000e+09,
             3.1594051400000000e+09, 3.1843048280000000e+09,
             3.1353479620000000e+09, 2.4256452320000000e+09,
             2.5316225240000000e+09, 2.6547201770000000e+09,
             2.7818649800000000e+09, 2.9039544360000000e+09,
             2.9916849840000000e+09, 3.0133951530000000e+09,
             2.4466887560000000e+09, 2.5740588400000000e+09,
             2.7134409350000000e+09, 2.8615113570000000e+09,
             3.0027719830000000e+09, 3.1098825640000000e+09,
             3.1314274250000000e+09, 2.4696667970000000e+09,
             2.6141336490000000e+09, 2.7695679530000000e+09,
             2.9341287440000000e+09, 3.0937194810000000e+09,
             3.2068287740000000e+09, 3.2225068750000000e+09,
             2.4972928200000000e+09, 2.6482711680000000e+09,
             2.8145284430000000e+09, 2.9906767090000000e+09,
             3.1637662980000000e+09, 3.2802952930000000e+09,
             3.2873752870000000e+09, 2.5268578670000000e+09,
             2.6821638690000000e+09, 2.8511713670000000e+09,
             3.0360698020000000e+09, 3.2363547470000000e+09,
             3.3791208730000000e+09, 3.3619588110000000e+09,
             2.5579434960000000e+09, 2.7191486240000000e+09,
             2.8902559530000000e+09, 3.0701032870000000e+09,
             3.2822145920000000e+09, 3.4615779440000000e+09,
             3.3904997180000000e+09, 2.5901142470000000e+09,
             2.7405306470000000e+09, 2.8899113050000000e+09,
             3.0431925050000000e+09, 3.2038198730000000e+09,
             3.3098667070000000e+09, 3.2885915060000000e+09,
             2.4149471760000000e+09, 2.5211147010000000e+09,
             2.6454964250000000e+09, 2.7828650980000000e+09,
             2.9144366170000000e+09, 3.0139610000000000e+09,
             3.0572571420000000e+09, 2.4288167200000000e+09,
             2.5586107670000000e+09, 2.6983680850000000e+09,
             2.8512325370000000e+09, 3.0066003340000000e+09,
             3.1303709570000000e+09, 3.1795588430000000e+09,
             2.4466146490000000e+09, 2.5908486470000000e+09,
             2.7491203930000000e+09, 2.9156670620000000e+09,
             3.0876680670000000e+09, 3.2274690550000000e+09,
             3.2753220130000000e+09, 2.4729331850000000e+09,
             2.6218783480000000e+09, 2.7884402920000000e+09,
             2.9664289150000000e+09, 3.1463081140000000e+09,
             3.2949801880000000e+09, 3.3386715750000000e+09,
             2.5035123770000000e+09, 2.6542448280000000e+09,
             2.8192509190000000e+09, 2.9980922090000000e+09,
             3.1887101350000000e+09, 3.3594850570000000e+09,
             3.4295192450000000e+09, 2.5344245260000000e+09,
             2.6897387410000000e+09, 2.8522106050000000e+09,
             3.0276060790000000e+09, 3.2072309550000000e+09,
             3.3904997180000000e+09, 3.5031560090000000e+09,
             2.5668168630000000e+09, 2.7134742930000000e+09,
             2.8594544050000000e+09, 3.0086380980000000e+09,
             3.1560262650000000e+09, 3.2850881430000000e+09,
             3.3503780910000000e+09, 2116321047., 2.1660619410000000e+09,
             2.2309960360000000e+09, 2.2939974180000000e+09,
             2.3532003540000000e+09, 2.3984381950000000e+09,
             2.3985115470000000e+09, 2.1497424510000000e+09,
             2.2148226650000000e+09, 2.2877626720000000e+09,
             2.3592258320000000e+09, 2.4241382820000000e+09,
             2.4746732390000000e+09, 2.4728835730000000e+09,
             2.1959051160000000e+09, 2.2681752530000000e+09,
             2.3448715430000000e+09, 2.4211942000000000e+09,
             2.4878394810000000e+09, 2.5317782830000000e+09,
             2.5168953640000000e+09, 2.2438380100000000e+09,
             2.3185262210000000e+09, 2.3985320380000000e+09,
             2.4725854000000000e+09, 2.5277184870000000e+09,
             2.5626250930000000e+09, 2.5466930790000000e+09,
             2.2896657030000000e+09, 2.3714209380000000e+09,
             2.4500792710000000e+09, 2.5040818640000000e+09,
             2.5537323370000000e+09, 2.5875972260000000e+09,
             2.5696145740000000e+09, 2.3753838710000000e+09,
             2.4500440430000000e+09, 2.4910561360000000e+09,
             2.5332041570000000e+09, 2.5692922480000000e+09,
             2.5901142470000000e+09, 2.5668168630000000e+09,
             2.4897609310000000e+09, 2.4905151510000000e+09,
             2.4939736800000000e+09, 2.5240883910000000e+09,
             2.5466974200000000e+09, 2.5578046480000000e+09,
             2.5329369740000000e+09, 2.1870686870000000e+09,
             2.2564112000000000e+09, 2.3263713120000000e+09,
             2.3963146250000000e+09, 2.4601246020000000e+09,
             2.5133750550000000e+09, 2.5203351610000000e+09,
             2.2190017990000000e+09, 2.3071147890000000e+09,
             2.3871663920000000e+09, 2.4633149010000000e+09,
             2.5366183740000000e+09, 2.5989334830000000e+09,
             2.5976680270000000e+09, 2.2624503660000000e+09,
             2.3644890980000000e+09, 2.4505062750000000e+09,
             2.5320654030000000e+09, 2.6086978860000000e+09,
             2.6618722330000000e+09, 2.6511804450000000e+09,
             2.3095713900000000e+09, 2.4208709450000000e+09,
             2.5114005050000000e+09, 2.5961327600000000e+09,
             2.6619994100000000e+09, 2.6988074970000000e+09,
             2.6802030270000000e+09, 2.3543069640000000e+09,
             2.4735341000000000e+09, 2.5699991860000000e+09,
             2.6472376240000000e+09, 2.6944307960000000e+09,
             2.7261704610000000e+09, 2.7100193870000000e+09,
             2.4150683130000000e+09, 2.5699016810000000e+09,
             2.6498098460000000e+09, 2.6860357740000000e+09,
             2.7187217070000000e+09, 2.7405306470000000e+09,
             2.7134742930000000e+09, 2.4905151510000000e+09,
             2.6795496690000000e+09, 2.6825984390000000e+09,
             2.6821700970000000e+09, 2.7019396540000000e+09,
             2.7086242640000000e+09, 2.6779849750000000e+09,
             2.2469367840000000e+09, 2.3286991600000000e+09,
             2.4132660970000000e+09, 2.4909644650000000e+09,
             2.5604114230000000e+09, 2.6164324120000000e+09,
             2.6335320130000000e+09, 2.2732878800000000e+09,
             2.3767924910000000e+09, 2.4751569840000000e+09,
             2.5623746360000000e+09, 2.6401837380000000e+09,
             2.7109447110000000e+09, 2.7206258690000000e+09,
             2.3145587550000000e+09, 2.4333353760000000e+09,
             2.5436778410000000e+09, 2.6365429070000000e+09,
             2.7213289470000000e+09, 2.7875456550000000e+09,
             2.7806248350000000e+09, 2.3595739650000000e+09,
             2.4931224910000000e+09, 2.6114494480000000e+09,
             2.7069696950000000e+09, 2.7874872470000000e+09,
             2.8362632510000000e+09, 2.8132823300000000e+09,
             2.3999893360000000e+09, 2.5456798640000000e+09,
             2.6680278710000000e+09, 2.7667670270000000e+09,
             2.8357953970000000e+09, 2.8652773270000000e+09,
             2.8457802340000000e+09, 2.4417058680000000e+09,
             2.6126630540000000e+09, 2.7663127440000000e+09,
             2.8413589380000000e+09, 2.8677892100000000e+09,
             2.8899113050000000e+09, 2.8594544050000000e+09,
             2.4939736800000000e+09, 2.6825984390000000e+09,
             2.8667696670000000e+09, 2.8639540120000000e+09,
             2.8558579110000000e+09, 2.8615517360000000e+09,
             2.8237698170000000e+09, 2.2979320980000000e+09,
             2.3871705050000000e+09, 2.4843040810000000e+09,
             2.5802891670000000e+09, 2.6587282190000000e+09,
             2.7216191400000000e+09, 2.7397374050000000e+09,
             2.3227604250000000e+09, 2.4327621410000000e+09,
             2.5458482370000000e+09, 2.6528229870000000e+09,
             2.7416472280000000e+09, 2.8165618540000000e+09,
             2.8383586160000000e+09, 2.3565085720000000e+09,
             2.4862917180000000e+09, 2.6150314620000000e+09,
             2.7332216600000000e+09, 2.8289113410000000e+09,
             2.9058714410000000e+09, 2.9152508760000000e+09,
             2.3969374100000000e+09, 2.5394978130000000e+09,
             2.6840114200000000e+09, 2.8102975150000000e+09,
             2.9055296210000000e+09, 2.9746736520000000e+09,
             2.9586862490000000e+09, 2.4351147100000000e+09,
             2.5853838760000000e+09, 2.7396350140000000e+09,
             2.8693599150000000e+09, 2.9646967790000000e+09,
             3.0167271500000000e+09, 2.9874420870000000e+09,
             2.4732929790000000e+09, 2.6347054480000000e+09,
             2.8075109710000000e+09, 2.9645838940000000e+09,
             3.0307668130000000e+09, 3.0431925050000000e+09,
             3.0086380980000000e+09, 2.5240883910000000e+09,
             2.6821700970000000e+09, 2.8639540120000000e+09,
             3.0508232520000000e+09, 3.0459508400000000e+09,
             3.0201470370000000e+09, 2.9777855730000000e+09,
             2.3445443110000000e+09, 2.4391073850000000e+09,
             2.5472540440000000e+09, 2.6577138080000000e+09,
             2.7572593870000000e+09, 2.8269506220000000e+09,
             2.8463887980000000e+09, 2.3643716510000000e+09,
             2.4838440410000000e+09, 2.6063624400000000e+09,
             2.7311995620000000e+09, 2.8434530020000000e+09,
             2.9281693620000000e+09, 2.9485154680000000e+09,
             2.3938885900000000e+09, 2.5277363450000000e+09,
             2.6703452550000000e+09, 2.8105562420000000e+09,
             2.9353813640000000e+09, 3.0224906980000000e+09,
             3.0368465070000000e+09, 2.4306936020000000e+09,
             2.5742376250000000e+09, 2.7325460980000000e+09,
             2.8870958550000000e+09, 3.0168165140000000e+09,
             3.0986994580000000e+09, 3.0926582770000000e+09,
             2.4660020280000000e+09, 2.6158411590000000e+09,
             2.7778164690000000e+09, 2.9425364090000000e+09,
             3.0749822260000000e+09, 3.1487414710000000e+09,
             3.1305696150000000e+09, 2.5006737480000000e+09,
             2.6576291430000000e+09, 2.8226359750000000e+09,
             3.0051363250000000e+09, 3.1594051400000000e+09,
             3.2038198730000000e+09, 3.1560262650000000e+09,
             2.5466974200000000e+09, 2.7019396540000000e+09,
             2.8558579110000000e+09, 3.0459508400000000e+09,
             3.2268346350000000e+09, 3.2056322390000000e+09,
             3.1318359980000000e+09, 2.3701039010000000e+09,
             2.4721505030000000e+09, 2.5873281510000000e+09,
             2.7108360350000000e+09, 2.8274103160000000e+09,
             2.9110840860000000e+09, 2.9336905390000000e+09,
             2.3919528510000000e+09, 2.5116360160000000e+09,
             2.6438414930000000e+09, 2.7805745140000000e+09,
             2.9133067970000000e+09, 3.0147663010000000e+09,
             3.0406710070000000e+09, 2.4177415230000000e+09,
             2.5522140810000000e+09, 2.6984192280000000e+09,
             2.8530213220000000e+09, 3.0021682340000000e+09,
             3.1133173780000000e+09, 3.1333229530000000e+09,
             2.4489528240000000e+09, 2.5951753860000000e+09,
             2.7555059730000000e+09, 2.9217353030000000e+09,
             3.0805924240000000e+09, 3.1920467450000000e+09,
             3.1962510910000000e+09, 2.4849119220000000e+09,
             2.6343910850000000e+09, 2.7964855770000000e+09,
             2.9663848940000000e+09, 3.1328661660000000e+09,
             3.2389033810000000e+09, 3.2375113530000000e+09,
             2.5166313730000000e+09, 2.6712100310000000e+09,
             2.8329408750000000e+09, 3.0039637300000000e+09,
             3.1843048280000000e+09, 3.3098667070000000e+09,
             3.2850881430000000e+09, 2.5578046480000000e+09,
             2.7086242640000000e+09, 2.8615517360000000e+09,
             3.0201470370000000e+09, 3.2056322390000000e+09,
             3.3579944700000000e+09, 3.2878712590000000e+09,
             2.3612110370000000e+09, 2.4633507200000000e+09,
             2.5862697480000000e+09, 2.7148028360000000e+09,
             2.8414415130000000e+09, 2.9355688550000000e+09,
             2.9766814090000000e+09, 2.3798987160000000e+09,
             2.5000035250000000e+09, 2.6332593530000000e+09,
             2.7800271680000000e+09, 2.9224271940000000e+09,
             3.0376793470000000e+09, 3.0838203620000000e+09,
             2.3985811900000000e+09, 2.5354916770000000e+09,
             2.6820815020000000e+09, 2.8408168610000000e+09,
             3.0041308140000000e+09, 3.1333866000000000e+09,
             3.1807450330000000e+09, 2.4253120010000000e+09,
             2.5709386880000000e+09, 2.7332838420000000e+09,
             2.9019093920000000e+09, 3.0727879790000000e+09,
             3.2109433250000000e+09, 3.2481467540000000e+09,
             2.4602472700000000e+09, 2.6080571920000000e+09,
             2.7697418560000000e+09, 2.9402412550000000e+09,
             3.1123506730000000e+09, 3.2519054040000000e+09,
             3.2868015830000000e+09, 2.4922578560000000e+09,
             2.6432159940000000e+09, 2.8000136100000000e+09,
             2.9651144460000000e+09, 3.1353479620000000e+09,
             3.2885915060000000e+09, 3.3503780910000000e+09,
             2.5329369740000000e+09, 2.6779849750000000e+09,
             2.8237698170000000e+09, 2.9777855730000000e+09,
             3.1318359980000000e+09, 3.2878712590000000e+09,
             3.3957929640000000e+09 ]
      - !!opencv-matrix
         rows: 49
         cols: 49
         dt: d
         data: [ 10616862., 6220364., 5349908., 4902979., 4655125.,
             4586468., 4607279., 6559491., 5422050., 4783295., 4505582.,
             4337040., 4304195., 4377238., 5502565., 4901589., 4494470.,
             4297517., 4182644., 4179604., 4264942., 5143059., 4690653.,
             4404961., 4218303., 4108034., 4091386., 4167263., 4968190.,
             4542874., 4326378., 4151659., 4095849., 4070253., 4169981.,
             4904272., 4502660., 4345319., 4229162., 4131979., 4151485.,
             4251804., 5038113., 4625740., 4505859., 4382677., 4303813.,
             4334346., 4443957., 6220364., 9173862., 5666131., 5015105.,
             4655800., 4497150., 4509061., 5662070., 5638894., 4972768.,
             4530254., 4307690., 4212634., 4258017., 4916980., 4755177.,
             4524828., 4267612., 4124112., 4077144., 4145348., 4595194.,
             4476930., 4352767., 4177817., 4047665., 4003221., 4075759.,
             4486576., 4344171., 4222097., 4100325., 3977884., 3984707.,
             4042668., 4451544., 4289993., 4168090., 4111735., 4062117.,
             4011475., 4130602., 4577957., 4412102., 4281129., 4270254.,
             4210514., 4201802., 4308525., 5349908., 5666131., 8616650.,
             5443905., 4872062., 4603496., 4538572., 4983573., 5113217.,
             5318898., 4817273., 4450027., 4282358., 4275349., 4616687.,
             4478649., 4500764., 4388054., 4196825., 4121267., 4147970.,
             4364102., 4212917., 4252847., 4222156., 4094099., 4041449.,
             4099793., 4267480., 4133043., 4134570., 4081028., 4009490.,
             3956278., 4059790., 4229313., 4096773., 4077188., 4016504.,
             4022094., 4034334., 4088186., 4354990., 4225723., 4200830.,
             4130447., 4183877., 4191091., 4281772., 4902979., 5015105.,
             5443905., 8429949., 5377280., 4886562., 4687371., 4661585.,
             4639548., 4879860., 5201357., 4800588., 4507958., 4404065.,
             4395857., 4288736., 4291016., 4407797., 4356877., 4257658.,
             4248703., 4219906., 4076907., 4053089., 4164651., 4182104.,
             4132614., 4186427., 4174067., 4014931., 3978264., 4049281.,
             4047998., 4033516., 4075891., 4145815., 3978300., 3943967.,
             3997387., 3984327., 4046479., 4154000., 4259285., 4103065.,
             4073878., 4115811., 4094885., 4220562., 4314737., 4655125.,
             4655800., 4872062., 5377280., 8412797., 5468852., 5045292.,
             4471316., 4411851., 4479474., 4779010., 5192953., 4922171.,
             4709183., 4256678., 4146997., 4121856., 4223412., 4382996.,
             4467042., 4464069., 4170290., 3974909., 3937759., 3987768.,
             4141478., 4257336., 4337235., 4099981., 3950372., 3888184.,
             3920242., 4026616., 4116662., 4212283., 4111232., 3938554.,
             3858638., 3883461., 3977791., 4041945., 4222387., 4229208.,
             4049842., 3987340., 4009294., 4095962., 4165624., 4392213.,
             4586468., 4497150., 4603496., 4886562., 5468852., 8765544.,
             5851901., 4419509., 4321915., 4347938., 4467177., 4836598.,
             5442641., 5316790., 4250348., 4109458., 4069263., 4114989.,
             4287766., 4592765., 4845077., 4173890., 4007805., 3918328.,
             3936862., 4042877., 4319408., 4612299., 4145269., 3948055.,
             3903495., 3901011., 3973546., 4169712., 4422296., 4176265.,
             3964218., 3894172., 3873995., 3938233., 4121043., 4337894.,
             4287556., 4092142., 4011758., 3999237., 4075129., 4257397.,
             4467800., 4607279., 4509061., 4538572., 4687371., 5045292.,
             5851901., 9774249., 4453885., 4329974., 4337815., 4405881.,
             4583465., 5155121., 6136392., 4301136., 4153127., 4114267.,
             4130901., 4231749., 4566122., 5183003., 4213235., 4070963.,
             4014391., 3988977., 4048715., 4282636., 4849759., 4210170.,
             4049451., 3964637., 3973498., 4022907., 4188062., 4657024.,
             4277781., 4081470., 3986335., 3966570., 3996877., 4148394.,
             4609408., 4422042., 4191802., 4118153., 4095435., 4131817.,
             4309016., 4744565., 6559491., 5662070., 4983573., 4661585.,
             4471316., 4419509., 4453885., 9445572., 5570713., 4862180.,
             4499896., 4307000., 4248339., 4291218., 6093616., 5076326.,
             4514733., 4266005., 4122975., 4098400., 4160859., 5256627.,
             4717280., 4351315., 4145327., 4040528., 4033349., 4119623.,
             5012402., 4609695., 4322148., 4141411., 4027411., 4001330.,
             4070673., 4948483., 4529434., 4309581., 4118313., 4071612.,
             4034684., 4142398., 4993074., 4586484., 4433556., 4306601.,
             4212181., 4251005., 4342258., 5422050., 5638894., 5113217.,
             4639548., 4411851., 4321915., 4329974., 5570713., 8275301.,
             5124443., 4579501., 4291076., 4173693., 4196552., 5222604.,
             5291625., 4684872., 4276518., 4079147., 4001258., 4055917.,
             4680682., 4572002., 4373804., 4117979., 3968331., 3918017.,
             4005621., 4469424., 4379277., 4280238., 4093911., 3963210.,
             3903392., 3965334., 4447545., 4320290., 4196049., 4077947.,
             3944237., 3936377., 4006765., 4499863., 4352828., 4239950.,
             4193838., 4136537., 4094553., 4213808., 4783295., 4972768.,
             5318898., 4879860., 4479474., 4347938., 4337815., 4862180.,
             5124443., 7825944., 4935654., 4461341., 4250484., 4218317.,
             4648053., 4765293., 5006762., 4534421., 4188428., 4052918.,
             4054050., 4399071., 4293503., 4342138., 4229066., 4030462.,
             3939312., 3993136., 4236839., 4121669., 4166135., 4144184.,
             4004421., 3934516., 3970354., 4227271., 4105349., 4105988.,
             4053846., 3977087., 3910041., 4009739., 4277915., 4156063.,
             4141737., 4085077., 4096487., 4115570., 4165816., 4505582.,
             4530254., 4817273., 5201357., 4779010., 4467177., 4405881.,
             4499896., 4579501., 4935654., 7654889., 4892564., 4490675.,
             4339310., 4388803., 4356268., 4563115., 4907544., 4508333.,
             4240157., 4164467., 4216751., 4105495., 4128607., 4247600.,
             4194061., 4075046., 4072146., 4097999., 3978146., 3966641.,
             4081616., 4102812., 4028704., 4059555., 4132629., 3982861.,
             3953139., 4020879., 4025330., 3997400., 4033803., 4200262.,
             4028224., 4007968., 4057069., 4051956., 4130493., 4238717.,
             4337040., 4307690., 4450027., 4800588., 5192953., 4836598.,
             4583465., 4307000., 4291076., 4461341., 4892564., 7663873.,
             4996890., 4657336., 4240512., 4178316., 4218386., 4497957.,
             4901875., 4607844., 4434328., 4106349., 3986663., 3971346.,
             4072088., 4226678., 4282363., 4275340., 4063535., 3887273.,
             3853821., 3912185., 4067941., 4164956., 4203162., 4064191.,
             3924983., 3873766., 3905475., 4003566., 4083567., 4170217.,
             4174679., 4001369., 3926704., 3949237., 4043936., 4126861.,
             4306977., 4304195., 4212634., 4282358., 4507958., 4922171.,
             5442641., 5155121., 4248339., 4173693., 4250484., 4490675.,
             4996890., 8016261., 5348134., 4204742., 4104512., 4122590.,
             4226811., 4571619., 5144564., 4989864., 4107825., 3959270.,
             3933803., 3976562., 4139279., 4422453., 4638949., 4078488.,
             3919653., 3839732., 3860349., 3969983., 4233710., 4482204.,
             4110505., 3921323., 3881306., 3882957., 3956442., 4153057.,
             4390390., 4230143., 4038566., 3960060., 3938981., 4011126.,
             4214838., 4430227., 4377238., 4258017., 4275349., 4404065.,
             4709183., 5316790., 6136392., 4291218., 4196552., 4218317.,
             4339310., 4657336., 5348134., 8891499., 4249528., 4134809.,
             4130734., 4206854., 4367598., 4880859., 5779973., 4183174.,
             4027520., 3995215., 4010871., 4104315., 4401852., 4986544.,
             4142103., 4005206., 3946529., 3921386., 3992985., 4205468.,
             4735011., 4202324., 4031421., 3951955., 3964607., 4017684.,
             4179445., 4648825., 4358394., 4158584., 4075633., 4050021.,
             4080146., 4256287., 4719148., 5502565., 4916980., 4616687.,
             4395857., 4256678., 4250348., 4301136., 6093616., 5222604.,
             4648053., 4388803., 4240512., 4204742., 4249528., 9048923.,
             5336352., 4687851., 4361016., 4186366., 4135586., 4178587.,
             5988746., 4994631., 4455602., 4199748., 4061985., 4033862.,
             4099812., 5252289., 4743203., 4350983., 4141762., 4041821.,
             4026200., 4102576., 5095913., 4703419., 4395231., 4199189.,
             4073629., 4043780., 4121953., 5144625., 4707101., 4484182.,
             4289218., 4234308., 4208198., 4317047., 4901589., 4755177.,
             4478649., 4288736., 4146997., 4109458., 4153127., 5076326.,
             5291625., 4765293., 4356268., 4178316., 4104512., 4134809.,
             5336352., 7955856., 4928045., 4431841., 4173180., 4059624.,
             4091794., 5085648., 5196751., 4615607., 4213011., 4013478.,
             3935116., 3995512., 4640194., 4563414., 4378233., 4110534.,
             3958378., 3908341., 3977583., 4514928., 4433987., 4337221.,
             4146469., 4008290., 3937591., 4010367., 4604125., 4464254.,
             4346397., 4234314., 4099029., 4102130., 4169176., 4494470.,
             4524828., 4500764., 4291016., 4121856., 4069263., 4114267.,
             4514733., 4684872., 5006762., 4563115., 4218386., 4122590.,
             4130734., 4687851., 4928045., 7529941., 4755596., 4317094.,
             4125303., 4102871., 4536708., 4644880., 4920362., 4442015.,
             4112098., 3972775., 3988909., 4348447., 4270634., 4330155.,
             4219910., 4014037., 3918700., 3956943., 4264847., 4161408.,
             4212895., 4181400., 4043247., 3959092., 4003603., 4354560.,
             4233235., 4243800., 4189802., 4123484., 4070361., 4160733.,
             4297517., 4267612., 4388054., 4407797., 4223412., 4114989.,
             4130901., 4266005., 4276518., 4534421., 4907544., 4497957.,
             4226811., 4206854., 4361016., 4431841., 4755596., 7384587.,
             4716834., 4342206., 4227042., 4320685., 4272610., 4477214.,
             4815245., 4407219., 4142840., 4090039., 4186522., 4092288.,
             4120677., 4242700., 4183274., 4037969., 4033358., 4133659.,
             4015645., 4008947., 4130829., 4152792., 4063690., 4086209.,
             4253393., 4110641., 4087052., 4157016., 4167560., 4161086.,
             4195611., 4182644., 4124112., 4196825., 4356877., 4382996.,
             4287766., 4231749., 4122975., 4079147., 4188428., 4508333.,
             4901875., 4571619., 4367598., 4186366., 4173180., 4317094.,
             4716834., 7395702., 4811692., 4506732., 4187280., 4109765.,
             4152574., 4413494., 4803549., 4491446., 4329311., 4098838.,
             3981881., 3965923., 4065088., 4225189., 4249125., 4211221.,
             4099735., 3934869., 3896106., 3955192., 4117599., 4199662.,
             4231792., 4185884., 4052139., 4005924., 4040321., 4147336.,
             4239209., 4334592., 4179604., 4077144., 4121267., 4257658.,
             4467042., 4592765., 4566122., 4098400., 4001258., 4052918.,
             4240157., 4607844., 5144564., 4880859., 4135586., 4059624.,
             4125303., 4342206., 4811692., 7709940., 5145792., 4151997.,
             4044054., 4067047., 4155594., 4489423., 5019194., 4851483.,
             4096523., 3961897., 3924517., 3976129., 4135064., 4400579.,
             4572964., 4122515., 3961400., 3885540., 3905776., 4012270.,
             4270743., 4520533., 4236850., 4044723., 4021039., 4020818.,
             4098512., 4315733., 4551107., 4264942., 4145348., 4147970.,
             4248703., 4464069., 4845077., 5183003., 4160859., 4055917.,
             4054050., 4164467., 4434328., 4989864., 5779973., 4178587.,
             4091794., 4102871., 4227042., 4506732., 5145792., 8570794.,
             4202547., 4082122., 4085987., 4157651., 4301744., 4783575.,
             5680836., 4188853., 4031435., 3995610., 4018945., 4119776.,
             4397674., 4962928., 4203956., 4059843., 3999388., 3978318.,
             4052111., 4264977., 4815954., 4356859., 4174353., 4093091.,
             4117264., 4174003., 4362694., 4851656., 5143059., 4595194.,
             4364102., 4219906., 4170290., 4173890., 4213235., 5256627.,
             4680682., 4399071., 4216751., 4106349., 4107825., 4183174.,
             5988746., 5085648., 4536708., 4320685., 4187280., 4151997.,
             4202547., 9047273., 5320156., 4693780., 4377030., 4197340.,
             4141764., 4194179., 6099020., 5096460., 4527533., 4265056.,
             4124199., 4093526., 4152831., 5437025., 4914236., 4496863.,
             4258855., 4164402., 4126453., 4222303., 5401622., 4969560.,
             4652841., 4443936., 4305772., 4282200., 4369063., 4690653.,
             4476930., 4212917., 4076907., 3974909., 4007805., 4070963.,
             4717280., 4572002., 4293503., 4105495., 3986663., 3959270.,
             4027520., 4994631., 5196751., 4644880., 4272610., 4109765.,
             4044054., 4082122., 5320156., 7918743., 4914527., 4418625.,
             4173885., 4051974., 4091719., 5112253., 5261388., 4671670.,
             4260815., 4066929., 3982903., 4029298., 4750766., 4687472.,
             4499740., 4217010., 4053376., 4001327., 4081146., 4729943.,
             4641378., 4548592., 4357101., 4220375., 4160392., 4231426.,
             4404961., 4352767., 4252847., 4053089., 3937759., 3918328.,
             4014391., 4351315., 4373804., 4342138., 4128607., 3971346.,
             3933803., 3995215., 4455602., 4615607., 4920362., 4477214.,
             4152574., 4067047., 4085987., 4693780., 4914527., 7534683.,
             4746464., 4312167., 4122173., 4106249., 4585114., 4698769.,
             4987055., 4505328., 4161706., 4027130., 4027595., 4448246.,
             4375101., 4446162., 4327957., 4112939., 4001576., 4066658.,
             4457244., 4356406., 4420777., 4390248., 4247626., 4177037.,
             4214907., 4218303., 4177817., 4222156., 4164651., 3987768.,
             3936862., 3988977., 4145327., 4117979., 4229066., 4247600.,
             4072088., 3976562., 4010871., 4199748., 4213011., 4442015.,
             4815245., 4413494., 4155594., 4157651., 4377030., 4418625.,
             4746464., 7356692., 4687779., 4314409., 4217188., 4358366.,
             4325702., 4529561., 4871717., 4450355., 4169472., 4118481.,
             4283781., 4185992., 4223727., 4341430., 4276498., 4116144.,
             4113171., 4310735., 4194702., 4199329., 4323250., 4345245.,
             4264008., 4291311., 4108034., 4047665., 4094099., 4182104.,
             4141478., 4042877., 4048715., 4040528., 3968331., 4030462.,
             4194061., 4226678., 4139279., 4104315., 4061985., 4013478.,
             4112098., 4407219., 4803549., 4489423., 4301744., 4197340.,
             4173885., 4312167., 4687779., 7333733., 4757643., 4484700.,
             4234852., 4157594., 4202881., 4469002., 4844846., 4503999.,
             4330808., 4194373., 4076765., 4061886., 4163386., 4319709.,
             4323155., 4283860., 4273605., 4111665., 4078008., 4145555.,
             4303503., 4407411., 4439841., 4091386., 4003221., 4041449.,
             4132614., 4257336., 4319408., 4282636., 4033349., 3918017.,
             3939312., 4075046., 4282363., 4422453., 4401852., 4033862.,
             3935116., 3972775., 4142840., 4491446., 5019194., 4783575.,
             4141764., 4051974., 4122173., 4314409., 4757643., 7612878.,
             5087465., 4193305., 4091486., 4106156., 4206001., 4540859.,
             5038064., 4836919., 4184436., 4049017., 4018654., 4073704.,
             4233094., 4484468., 4637490., 4297195., 4132942., 4063318.,
             4093147., 4205420., 4472391., 4720061., 4167263., 4075759.,
             4099793., 4186427., 4337235., 4612299., 4849759., 4119623.,
             4005621., 3993136., 4072146., 4275340., 4638949., 4986544.,
             4099812., 3995512., 3988909., 4090039., 4329311., 4851483.,
             5680836., 4194179., 4091719., 4106249., 4217188., 4484700.,
             5087465., 8520661., 4258512., 4137664., 4133622., 4209440.,
             4371981., 4847454., 5722415., 4293238., 4133558., 4096542.,
             4123709., 4240796., 4520807., 5116086., 4399195., 4253453.,
             4191284., 4174705., 4275001., 4514770., 5091812., 4968190.,
             4486576., 4267480., 4174067., 4099981., 4145269., 4210170.,
             5012402., 4469424., 4236839., 4097999., 4063535., 4078488.,
             4142103., 5252289., 4640194., 4348447., 4186522., 4098838.,
             4096523., 4188853., 6099020., 5112253., 4585114., 4358366.,
             4234852., 4193305., 4258512., 9311344., 5468991., 4811752.,
             4489336., 4305872., 4255091., 4294760., 6403513., 5337927.,
             4726052., 4426413., 4287547., 4243374., 4328764., 5854097.,
             5268634., 4823531., 4553190., 4437405., 4415907., 4526832.,
             4542874., 4344171., 4133043., 4014931., 3950372., 3948055.,
             4049451., 4609695., 4379277., 4121669., 3978146., 3887273.,
             3919653., 4005206., 4743203., 4563414., 4270634., 4092288.,
             3981881., 3961897., 4031435., 5096460., 5261388., 4698769.,
             4325702., 4157594., 4091486., 4137664., 5468991., 8157287.,
             5040120., 4540775., 4292090., 4163559., 4197271., 5325226.,
             5486671., 4879336., 4438694., 4224165., 4141259., 4203609.,
             5059183., 4979060., 4799244., 4517312., 4334600., 4298731.,
             4373083., 4326378., 4222097., 4134570., 3978264., 3888184.,
             3903495., 3964637., 4322148., 4280238., 4166135., 3966641.,
             3853821., 3839732., 3946529., 4350983., 4378233., 4330155.,
             4120677., 3965923., 3924517., 3995610., 4527533., 4671670.,
             4987055., 4529561., 4202881., 4106156., 4133622., 4811752.,
             5040120., 7742119., 4863461., 4426566., 4233110., 4201007.,
             4764238., 4877792., 5184198., 4681363., 4317199., 4166107.,
             4189610., 4702754., 4645566., 4722505., 4611551., 4383867.,
             4282266., 4346668., 4151659., 4100325., 4081028., 4049281.,
             3920242., 3901011., 3973498., 4141411., 4093911., 4144184.,
             4081616., 3912185., 3860349., 3921386., 4141762., 4110534.,
             4219910., 4242700., 4065088., 3976129., 4018945., 4265056.,
             4260815., 4505328., 4871717., 4469002., 4206001., 4209440.,
             4489336., 4540775., 4863461., 7555254., 4815963., 4430817.,
             4327115., 4534007., 4489920., 4705101., 5058302., 4614815.,
             4314709., 4280374., 4532454., 4432171., 4479746., 4603119.,
             4548497., 4395259., 4389590., 4095849., 3977884., 4009490.,
             4047998., 4026616., 3973546., 4022907., 4027411., 3963210.,
             4004421., 4102812., 4067941., 3969983., 3992985., 4041821.,
             3958378., 4014037., 4183274., 4225189., 4135064., 4119776.,
             4124199., 4066929., 4161706., 4450355., 4844846., 4540859.,
             4371981., 4305872., 4292090., 4426566., 4815963., 7542118.,
             4890728., 4589858., 4414627., 4332418., 4387052., 4666656.,
             5043980., 4674767., 4494464., 4458016., 4334901., 4329852.,
             4438989., 4602478., 4615927., 4578603., 4070253., 3984707.,
             3956278., 4033516., 4116662., 4169712., 4188062., 4001330.,
             3903392., 3934516., 4028704., 4164956., 4233710., 4205468.,
             4026200., 3908341., 3918700., 4037969., 4249125., 4400579.,
             4397674., 4093526., 3982903., 4027130., 4169472., 4503999.,
             5038064., 4847454., 4255091., 4163559., 4233110., 4430817.,
             4890728., 7807149., 5198624., 4362050., 4258209., 4280833.,
             4382781., 4736661., 5227237., 5005116., 4440438., 4310795.,
             4288492., 4342576., 4521807., 4795106., 4946972., 4169981.,
             4042668., 4059790., 4075891., 4212283., 4422296., 4657024.,
             4070673., 3965334., 3970354., 4059555., 4203162., 4482204.,
             4735011., 4102576., 3977583., 3956943., 4033358., 4211221.,
             4572964., 4962928., 4152831., 4029298., 4027595., 4118481.,
             4330808., 4836919., 5722415., 4294760., 4197271., 4201007.,
             4327115., 4589858., 5198624., 8713208., 4423470., 4293226.,
             4292519., 4375633., 4548268., 5054704., 5995461., 4541604.,
             4378690., 4353202., 4391905., 4533627., 4881940., 5534389.,
             4904272., 4451544., 4229313., 4145815., 4111232., 4176265.,
             4277781., 4948483., 4447545., 4227271., 4132629., 4064191.,
             4110505., 4202324., 5095913., 4514928., 4264847., 4133659.,
             4099735., 4122515., 4203956., 5437025., 4750766., 4448246.,
             4283781., 4194373., 4184436., 4293238., 6403513., 5325226.,
             4764238., 4534007., 4414627., 4362050., 4423470., 10018532.,
             5832038., 5096317., 4747176., 4540173., 4489618., 4556556.,
             7158500., 5900636., 5181795., 4827683., 4665294., 4631042.,
             4736249., 4502660., 4289993., 4096773., 3978300., 3938554.,
             3964218., 4081470., 4529434., 4320290., 4105349., 3982861.,
             3924983., 3921323., 4031421., 4703419., 4433987., 4161408.,
             4015645., 3934869., 3961400., 4059843., 4914236., 4687472.,
             4375101., 4185992., 4076765., 4049017., 4133558., 5337927.,
             5486671., 4877792., 4489920., 4332418., 4258209., 4293226.,
             5832038., 8666347., 5338594., 4797074., 4526177., 4382897.,
             4436258., 5803142., 5975819., 5327722., 4846043., 4588342.,
             4511715., 4575666., 4345319., 4168090., 4077188., 3943967.,
             3858638., 3894172., 3986335., 4309581., 4196049., 4105988.,
             3953139., 3873766., 3881306., 3951955., 4395231., 4337221.,
             4212895., 4008947., 3896106., 3885540., 3999388., 4496863.,
             4499740., 4446162., 4223727., 4061886., 4018654., 4096542.,
             4726052., 4879336., 5184198., 4705101., 4387052., 4280833.,
             4292519., 5096317., 5338594., 8203239., 5142544., 4672863.,
             4462591., 4442940., 5142145., 5296884., 5632195., 5099830.,
             4703173., 4538958., 4560968., 4229162., 4111735., 4016504.,
             3997387., 3883461., 3873995., 3966570., 4118313., 4077947.,
             4053846., 4020879., 3905475., 3882957., 3964607., 4199189.,
             4146469., 4181400., 4130829., 3955192., 3905776., 3978318.,
             4258855., 4217010., 4327957., 4341430., 4163386., 4073704.,
             4123709., 4426413., 4438694., 4681363., 5058302., 4666656.,
             4382781., 4375633., 4747176., 4797074., 5142544., 8010568.,
             5087303., 4681489., 4577905., 4898531., 4845769., 5111051.,
             5494089., 5027197., 4707654., 4653484., 4131979., 4062117.,
             4022094., 3984327., 3977791., 3938233., 3996877., 4071612.,
             3944237., 3977087., 4025330., 4003566., 3956442., 4017684.,
             4073629., 4008290., 4043247., 4152792., 4117599., 4012270.,
             4052111., 4164402., 4053376., 4112939., 4276498., 4319709.,
             4233094., 4240796., 4287547., 4224165., 4317199., 4614815.,
             5043980., 4736661., 4548268., 4540173., 4526177., 4672863.,
             5087303., 7979126., 5159549., 4863624., 4745567., 4676941.,
             4733718., 5063182., 5490317., 5095229., 4897427., 4151485.,
