%YAML:1.0
---
opencv_ml_lr:
   format: 3
   classifier: Logistic Regression Classifier
   alpha: 1.0000000000000000e-03
   iterations: 1000
   norm: 1
   train_method: 1
   mini_batch_size: 4
   learnt_thetas: !!opencv-matrix
      rows: 1
      cols: 50
      dt: f
      data: [ 6.39982801e-03, 6.07887749e-04, -2.06908304e-03,
          -1.44310901e-03, -1.25020382e-03, -1.90150377e-03,
          -1.54469803e-03, -2.52082036e-03, -3.10218637e-03,
          -2.67683645e-04, -1.79346628e-03, -1.93332345e-03,
          -3.96363158e-03, -1.94229744e-03, -4.04836843e-03,
          2.02747155e-03, 1.10663495e-04, -1.36671879e-03,
          -1.65489316e-03, -3.18774604e-03, -3.28064570e-03,
          -3.42182093e-03, -4.45797923e-04, -1.56088127e-03,
          -2.21953751e-03, -1.08298671e-03, -4.45150258e-03,
          -2.88106618e-03, -4.54306230e-03, -6.97215844e-04,
          -1.62822136e-03, -2.84898630e-03, 4.92258951e-05,
          -9.05758585e-04, -3.58647760e-03, -3.28557263e-03,
          1.52834749e-03, 1.40173361e-04, 2.58058019e-04,
          -1.68852013e-04, -3.30540026e-03, -3.04036960e-03,
          -3.18259257e-03, 7.28404382e-04, -4.49760155e-05,
          1.74292992e-03, -2.30018180e-04, -2.17428268e-03,
          -7.91282917e-04, -2.82803085e-03 ]
   n_labels: !!opencv-matrix
      rows: 2
      cols: 1
      dt: i
      data: [ 0, 1 ]
   o_labels: !!opencv-matrix
      rows: 2
      cols: 1
      dt: i
      data: [ -1, 1 ]
