%YAML:1.0
---
opencv_ml_svm:
   format: 3
   svmType: C_SVC
   kernel:
      type: LINEAR
   C: 1.
   term_criteria: { iterations:100 }
   var_count: 49
   class_count: 2
   class_labels: !!opencv-matrix
      rows: 2
      cols: 1
      dt: i
      data: [ -1, 1 ]
   sv_total: 1
   support_vectors:
      - [ 2.95312842e-03, 4.07344429e-03, 5.93774766e-03, 9.65816993e-03,
          1.17404396e-02, 1.28969206e-02, 7.97851942e-03, 1.63799524e-03,
          2.02830834e-03, 6.89822016e-03, 2.26236903e-03, 3.96528095e-03,
          4.06223489e-03, 7.59625714e-03, 9.07147303e-03, 5.55387884e-03,
          4.24913224e-03, 5.68732806e-03, 6.25471398e-03, 3.54592269e-03,
          6.39550993e-03, 9.71882232e-03, 6.15161518e-03, 4.14288137e-04,
          3.72921722e-03, 2.73583201e-03, 3.98863293e-03, 2.19162228e-03,
          6.74620084e-03, 1.33448513e-03, 2.99561350e-03, 5.69877727e-03,
          3.47317685e-03, 6.19328208e-03, 7.31140142e-03, 1.13359038e-02,
          2.60110619e-03, 4.85926587e-03, 5.39292023e-03, 1.12103745e-02,
          5.66233695e-03, 7.08899321e-03, 7.95329548e-03, 2.44432199e-03,
          6.09812746e-03, 4.25799564e-03, 1.11860912e-02, 7.44220754e-03,
          1.34012820e-02 ]
   uncompressed_sv_total: 28
   uncompressed_support_vectors:
      - [ 15., 8., 8., 11., 11., 12., 7., 13., 9., 6., 8., 13., 9., 2.,
          10., 10., 9., 9., 10., 6., 2., 14., 8., 9., 12., 10., 5., 19.,
          14., 14., 7., 7., 9., 2., 62., 12., 12., 10., 9., 11., 0., 90.,
          15., 11., 12., 12., 7., 16., 123. ]
      - [ 1., 9., 2., 6., 2., 7., 6., 1., 6., 5., 5., 7., 6., 28., 1.,
          3., 6., 10., 0., 24., 104., 1., 8., 8., 1., 7., 80., 74., 1.,
          9., 2., 3., 59., 73., 3., 1., 5., 5., 51., 88., 19., 4., 2.,
          4., 39., 97., 32., 6., 1. ]
      - [ 10., 13., 2., 1., 4., 8., 2., 3., 1., 4., 14., 17., 17., 20.,
          7., 2., 3., 10., 14., 12., 14., 3., 5., 11., 16., 9., 14., 15.,
          9., 10., 11., 13., 31., 24., 17., 8., 11., 5., 33., 107., 45.,
          9., 7., 5., 13., 86., 78., 16., 10. ]
      - [ 13., 9., 9., 9., 6., 5., 4., 2., 4., 6., 1., 0., 5., 4., 30.,
          12., 4., 5., 7., 8., 6., 55., 22., 10., 7., 9., 10., 6., 76.,
          9., 10., 9., 6., 5., 4., 92., 15., 13., 8., 8., 6., 8., 98.,
          45., 18., 9., 10., 12., 11. ]
      - [ 1., 2., 2., 8., 5., 7., 30., 3., 11., 18., 48., 71., 63., 42.,
          9., 17., 14., 61., 41., 8., 4., 6., 6., 9., 1., 11., 3., 0.,
          3., 6., 4., 28., 11., 56., 66., 7., 10., 17., 35., 50., 35.,
          3., 10., 11., 12., 3., 8., 16., 3. ]
      - [ 21., 21., 2., 5., 1., 1., 3., 18., 18., 2., 1., 4., 1., 6.,
          30., 19., 2., 1., 1., 2., 6., 26., 27., 4., 1., 3., 1., 1.,
          28., 17., 1., 5., 8., 9., 9., 6., 9., 24., 19., 11., 12., 3.,
          18., 30., 19., 18., 19., 16., 20. ]
      - [ 13., 6., 0., 32., 21., 15., 17., 3., 14., 5., 3., 15., 9., 4.,
          2., 4., 14., 9., 1., 31., 0., 8., 3., 24., 5., 6., 27., 12.,
          20., 11., 20., 17., 22., 7., 11., 4., 7., 1., 8., 8., 3., 32.,
          16., 7., 7., 12., 15., 14., 10. ]
      - [ 21., 15., 20., 1., 13., 21., 10., 3., 8., 0., 9., 4., 8., 18.,
          9., 2., 5., 4., 5., 29., 6., 15., 5., 9., 13., 13., 8., 12.,
          9., 3., 3., 3., 14., 0., 12., 15., 6., 23., 5., 8., 31., 3.,
          15., 18., 22., 2., 20., 1., 23. ]
      - [ 11., 21., 3., 12., 1., 2., 2., 11., 11., 12., 15., 33., 5., 8.,
          11., 0., 0., 1., 29., 9., 15., 24., 13., 9., 10., 23., 4., 13.,
          23., 6., 1., 1., 25., 5., 7., 23., 8., 7., 20., 21., 19., 0.,
          24., 9., 7., 36., 3., 5., 11. ]
      - [ 2., 1., 4., 3., 7., 29., 73., 1., 0., 1., 1., 0., 13., 40., 2.,
          0., 2., 2., 1., 4., 6., 7., 0., 2., 5., 2., 5., 16., 5., 0.,
          0., 0., 0., 1., 25., 16., 5., 1., 1., 4., 9., 22., 42., 10.,
          1., 0., 6., 15., 26. ]
      - [ 2., 2., 12., 46., 83., 100., 103., 1., 1., 3., 1., 11., 44.,
          81., 1., 3., 2., 2., 8., 5., 15., 1., 3., 1., 1., 2., 6., 8.,
          3., 1., 1., 1., 0., 6., 8., 5., 1., 1., 5., 1., 6., 5., 7., 3.,
          2., 2., 3., 2., 0. ]
      - [ 4., 6., 5., 4., 0., 19., 11., 2., 5., 8., 5., 17., 92., 33.,
          3., 4., 2., 4., 73., 64., 3., 4., 1., 3., 59., 70., 2., 8., 1.,
          8., 50., 84., 15., 6., 2., 5., 35., 92., 29., 5., 1., 2., 30.,
          96., 51., 42., 0., 14., 9. ]
      - [ 1., 1., 0., 13., 40., 39., 18., 2., 2., 1., 4., 6., 29., 2.,
          2., 5., 2., 5., 16., 13., 7., 0., 0., 0., 1., 25., 6., 3., 1.,
          1., 4., 9., 22., 11., 1., 1., 0., 6., 15., 26., 21., 10., 3.,
          5., 2., 19., 26., 11., 13. ]
      - [ 8., 12., 8., 26., 14., 8., 18., 6., 3., 2., 0., 7., 7., 7., 6.,
          5., 12., 20., 48., 71., 63., 8., 9., 17., 13., 59., 44., 9.,
          9., 7., 6., 10., 0., 10., 1., 5., 2., 7., 3., 29., 10., 56.,
          8., 6., 10., 18., 37., 49., 34. ]
      - [ 4., 5., 3., 26., 34., 19., 21., 12., 12., 53., 34., 38., 27.,
          11., 12., 9., 26., 15., 6., 17., 6., 4., 4., 0., 5., 6., 5.,
          32., 5., 14., 19., 50., 71., 63., 42., 8., 17., 13., 58., 42.,
          12., 4., 6., 7., 10., 1., 11., 0., 0. ]
      - [ 0., 7., 3., 4., 9., 10., 11., 3., 5., 5., 5., 8., 11., 5., 1.,
          10., 7., 4., 7., 5., 13., 1., 8., 6., 3., 2., 1., 60., 0., 7.,
          4., 2., 5., 52., 88., 1., 5., 5., 1., 45., 91., 24., 0., 6.,
          0., 28., 98., 47., 28. ]
      - [ 4., 1., 6., 2., 6., 1., 4., 1., 2., 6., 1., 3., 3., 3., 3., 1.,
          1., 4., 4., 11., 5., 8., 9., 9., 1., 0., 10., 12., 11., 12.,
          3., 21., 19., 21., 13., 19., 16., 20., 27., 24., 6., 19., 7.,
          11., 29., 30., 37., 6., 29. ]
      - [ 3., 1., 11., 44., 81., 107., 106., 2., 2., 8., 5., 15., 40.,
          69., 1., 1., 2., 6., 8., 7., 10., 1., 1., 0., 6., 8., 3., 4.,
          1., 5., 1., 6., 5., 1., 3., 2., 2., 3., 2., 0., 4., 5., 6., 4.,
          1., 0., 3., 7., 4. ]
      - [ 2., 0., 2., 2., 1., 4., 6., 7., 0., 2., 5., 2., 5., 16., 5.,
          0., 0., 0., 0., 1., 25., 16., 5., 1., 1., 4., 9., 22., 42.,
          10., 1., 0., 6., 15., 26., 41., 7., 3., 5., 2., 19., 26., 35.,
          32., 5., 21., 20., 24., 7. ]
      - [ 17., 8., 8., 27., 23., 9., 1., 19., 3., 8., 19., 8., 4., 13.,
          10., 9., 2., 7., 34., 11., 6., 7., 17., 6., 1., 15., 17., 4.,
          18., 20., 6., 2., 1., 11., 5., 20., 11., 4., 1., 12., 32., 4.,
          13., 3., 13., 4., 3., 14., 13. ]
      - [ 14., 6., 7., 11., 9., 4., 2., 2., 2., 3., 2., 2., 5., 4., 30.,
          13., 4., 4., 4., 9., 10., 55., 22., 9., 8., 9., 10., 9., 77.,
          9., 10., 9., 8., 5., 3., 94., 16., 14., 7., 9., 7., 6., 99.,
          45., 18., 9., 11., 13., 9. ]
      - [ 7., 2., 10., 15., 32., 29., 9., 0., 5., 5., 7., 13., 29., 1.,
          5., 5., 2., 4., 11., 5., 4., 4., 0., 11., 10., 22., 31., 6.,
          15., 7., 5., 6., 8., 12., 24., 9., 10., 2., 18., 8., 6., 20.,
          10., 0., 1., 10., 18., 25., 5. ]
      - [ 1., 2., 1., 2., 1., 1., 0., 2., 1., 1., 0., 1., 3., 4., 10.,
          0., 0., 1., 5., 0., 3., 11., 2., 2., 7., 5., 32., 25., 10., 3.,
          8., 4., 38., 21., 54., 7., 2., 10., 30., 8., 84., 72., 1., 7.,
          13., 19., 71., 83., 70. ]
      - [ 12., 6., 3., 10., 20., 77., 125., 15., 6., 0., 5., 17., 5.,
          133., 12., 7., 2., 3., 4., 10., 48., 11., 11., 6., 4., 2., 0.,
          23., 15., 8., 6., 3., 4., 4., 6., 17., 4., 3., 3., 5., 4., 4.,
          7., 11., 4., 4., 6., 8., 6. ]
      - [ 14., 6., 8., 10., 11., 11., 14., 9., 8., 9., 11., 13., 13., 7.,
          10., 10., 9., 10., 11., 16., 5., 7., 7., 11., 12., 13., 6., 5.,
          8., 5., 7., 13., 10., 1., 77., 7., 7., 9., 10., 5., 1., 114.,
          4., 8., 10., 8., 4., 18., 126. ]
      - [ 3., 4., 4., 4., 5., 6., 7., 7., 4., 6., 7., 6., 3., 7., 5., 4.,
          7., 8., 8., 9., 19., 7., 6., 7., 7., 12., 25., 10., 7., 10.,
          9., 13., 22., 20., 59., 4., 5., 13., 18., 44., 62., 36., 7.,
          0., 9., 53., 83., 60., 26. ]
      - [ 83., 79., 90., 58., 6., 0., 2., 94., 87., 88., 92., 32., 5.,
          2., 53., 63., 62., 71., 55., 10., 10., 5., 4., 5., 2., 3., 4.,
          3., 2., 3., 4., 3., 2., 2., 4., 2., 2., 1., 0., 2., 0., 0., 2.,
          2., 1., 0., 1., 2., 0. ]
      - [ 19., 13., 1., 10., 17., 4., 1., 7., 7., 6., 15., 2., 18., 15.,
          10., 22., 1., 23., 4., 9., 2., 18., 6., 26., 23., 6., 0., 18.,
          6., 16., 9., 6., 10., 20., 11., 12., 1., 11., 3., 11., 15.,
          12., 12., 14., 4., 16., 4., 19., 30. ]
   decision_functions:
      -
         sv_count: 1
         rho: 4.2651505596270010e+00
         alpha: [ 1. ]
         index: [ 0 ]
