%YAML:1.0
---
opencv_ml_svm:
   format: 3
   svmType: C_SVC
   kernel:
      type: LINEAR
   C: 1.
   term_criteria: { iterations:100 }
   var_count: 98
   class_count: 2
   class_labels: !!opencv-matrix
      rows: 2
      cols: 1
      dt: i
      data: [ -1, 1 ]
   sv_total: 1
   support_vectors:
      - [ -1.98748647e-04, -2.92969227e-04, -2.93700432e-04,
          -5.90316995e-06, -1.18310345e-04, -1.05262778e-04,
          -2.46481766e-04, -2.37723027e-04, -1.60362193e-04,
          -3.79509933e-04, -1.47054860e-04, -1.22311219e-04,
          -2.19174486e-04, -2.10149883e-04, -1.29114575e-04,
          -1.21808938e-04, -2.33860061e-04, -1.64601646e-04,
          -5.52321617e-05, -2.35156898e-04, -2.92869285e-04,
          -1.63720339e-04, -1.61014454e-04, 1.62592041e-05,
          -6.97320284e-05, 6.42515733e-05, -3.06215283e-04,
          -3.11048498e-04, -1.61344899e-04, -1.72022745e-04,
          -1.17056603e-04, -1.71517269e-04, -1.94280263e-04,
          -2.16137400e-04, -2.25967160e-04, -1.20816709e-04,
          -7.81174604e-05, -1.23673686e-04, -2.31294121e-04,
          -2.55078136e-04, -8.47574702e-05, -5.41316040e-05,
          -2.94043366e-05, 3.28595670e-05, -1.52126144e-04,
          -1.00436308e-04, -1.64090816e-04, -3.38685379e-04,
          -1.54533496e-04, -6.27028858e-05, 8.69685464e-05,
          1.50275475e-04, 2.26023752e-04, -4.35355934e-04,
          -1.14943141e-04, -4.82287833e-05, -1.30961722e-04,
          1.64036701e-05, 5.97256621e-05, 4.07412190e-05,
          -5.55970546e-05, -1.52976616e-04, -7.05550556e-05,
          -6.09896560e-05, -1.13933165e-04, -3.98145567e-05,
          5.55142906e-05, -8.99607694e-05, -1.63727382e-04,
          -9.87053500e-05, -7.93639410e-05, -6.38129204e-05,
          -1.46143620e-05, 5.23704184e-05, -2.36689724e-04,
          2.19236681e-04, -3.59830970e-04, -1.89692553e-04,
          -1.26876097e-04, -5.66876006e-05, 1.21238281e-05,
          -1.46637904e-04, 1.91828731e-04, -3.87653097e-04,
          -4.21774632e-04, -2.87015835e-04, -8.24823801e-05,
          -1.27228108e-04, -2.60999950e-04, -1.60547861e-04,
          -5.43774222e-05, 5.85447597e-05, 4.08807173e-05,
          -8.23606024e-06, 5.25692485e-07, -6.56831762e-05,
          -4.96891953e-05, -2.73885031e-04 ]
   uncompressed_sv_total: 57
   uncompressed_support_vectors:
      - [ 125., 99., 41., 84., 48., 91., 100., 119., 122., 53., 72., 63.,
          57., 56., 117., 126., 87., 49., 86., 37., 86., 116., 122.,
          120., 43., 82., 55., 60., 116., 118., 137., 68., 58., 78., 36.,
          116., 120., 134., 108., 40., 85., 41., 116., 122., 129., 132.,
          51., 72., 66., 6., 3., 5., 8., 8., 6., 8., 7., 6., 9., 8., 7.,
          8., 5., 8., 7., 10., 8., 9., 8., 3., 9., 9., 11., 9., 8., 8.,
          8., 9., 8., 11., 8., 8., 7., 7., 8., 9., 8., 8., 9., 10., 6.,
          10., 10., 9., 9., 9., 9., 7. ]
      - [ 210., 201., 202., 203., 201., 202., 199., 202., 203., 203.,
          202., 203., 203., 201., 202., 202., 201., 202., 201., 201.,
          199., 202., 200., 201., 202., 201., 201., 196., 201., 202.,
          201., 200., 201., 201., 199., 207., 204., 205., 206., 204.,
          206., 204., 193., 190., 194., 193., 190., 196., 198., 214.,
          203., 202., 203., 202., 202., 202., 202., 203., 204., 203.,
          202., 203., 203., 202., 202., 202., 201., 202., 201., 201.,
          203., 202., 202., 201., 201., 201., 199., 202., 202., 202.,
          201., 202., 203., 201., 208., 206., 206., 207., 206., 205.,
          206., 190., 191., 193., 194., 189., 192., 199. ]
      - [ 192., 191., 190., 190., 187., 195., 207., 202., 203., 201.,
          202., 199., 197., 205., 203., 202., 203., 203., 201., 198.,
          205., 201., 202., 201., 201., 199., 198., 205., 201., 202.,
          201., 201., 196., 197., 204., 201., 200., 201., 201., 199.,
          198., 205., 205., 206., 204., 206., 204., 199., 205., 193.,
          191., 192., 190., 189., 190., 190., 202., 203., 202., 202.,
          202., 200., 200., 204., 203., 202., 203., 203., 201., 202.,
          202., 201., 202., 201., 201., 201., 202., 202., 201., 201.,
          201., 199., 200., 202., 202., 201., 202., 203., 201., 200.,
          200., 206., 207., 206., 205., 206., 205., 205. ]
      - [ 190., 189., 190., 191., 191., 189., 191., 191., 191., 190.,
          190., 190., 190., 190., 190., 190., 190., 191., 190., 191.,
          190., 191., 191., 191., 191., 191., 191., 190., 190., 190.,
          191., 191., 191., 190., 190., 190., 191., 190., 190., 191.,
          191., 190., 192., 192., 192., 191., 192., 191., 191., 176.,
          182., 182., 179., 178., 178., 184., 178., 180., 183., 183.,
          178., 181., 188., 179., 180., 181., 181., 180., 184., 189.,
          176., 182., 180., 179., 181., 186., 172., 177., 177., 183.,
          183., 181., 193., 129., 178., 177., 180., 181., 180., 190.,
          100., 175., 178., 178., 180., 185., 176., 68. ]
      - [ 168., 168., 170., 168., 172., 168., 170., 168., 170., 169.,
          169., 169., 170., 171., 169., 168., 169., 167., 164., 171.,
          167., 168., 167., 171., 172., 168., 169., 167., 171., 173.,
          170., 171., 172., 169., 170., 170., 172., 169., 168., 169.,
          168., 171., 169., 168., 166., 167., 170., 169., 170., 199.,
          198., 199., 199., 199., 197., 196., 199., 198., 198., 197.,
          198., 200., 198., 198., 198., 199., 197., 196., 197., 199.,
          199., 199., 199., 198., 197., 197., 197., 200., 197., 197.,
          198., 196., 197., 196., 198., 197., 197., 199., 197., 198.,
          198., 196., 197., 195., 197., 197., 196., 195. ]
      - [ 68., 70., 58., 55., 63., 64., 62., 77., 71., 69., 61., 60.,
          71., 61., 76., 65., 73., 83., 68., 73., 63., 69., 64., 67.,
          74., 62., 62., 66., 62., 60., 64., 64., 57., 59., 63., 69.,
          62., 67., 70., 80., 78., 66., 89., 65., 63., 78., 105., 84.,
          69., 28., 27., 28., 28., 30., 27., 26., 27., 28., 30., 27.,
          26., 27., 26., 28., 28., 28., 26., 26., 25., 23., 28., 27.,
          25., 26., 27., 23., 18., 28., 28., 24., 27., 26., 22., 19.,
          27., 26., 27., 25., 22., 20., 21., 24., 25., 24., 25., 21.,
          19., 20. ]
      - [ 16., 17., 16., 17., 17., 17., 16., 17., 16., 17., 18., 17.,
          17., 17., 18., 17., 15., 16., 17., 17., 18., 17., 16., 17.,
          16., 17., 17., 16., 17., 16., 16., 16., 17., 18., 17., 15.,
          16., 16., 17., 18., 17., 18., 16., 17., 15., 16., 17., 16.,
          17., 47., 60., 61., 63., 65., 64., 65., 61., 61., 59., 63.,
          65., 66., 66., 60., 58., 61., 64., 65., 67., 69., 58., 58.,
          61., 65., 67., 69., 68., 60., 60., 61., 65., 68., 67., 69.,
          59., 61., 62., 64., 66., 67., 69., 61., 62., 63., 63., 66.,
          67., 67. ]
      - [ 83., 84., 84., 88., 85., 83., 87., 85., 91., 89., 88., 84.,
          85., 87., 82., 84., 86., 83., 81., 86., 83., 84., 81., 83.,
          84., 81., 86., 85., 84., 83., 82., 81., 83., 81., 79., 80.,
          85., 80., 82., 83., 82., 83., 82., 79., 80., 85., 78., 80.,
          79., 16., 16., 15., 16., 16., 15., 15., 18., 17., 17., 16.,
          16., 16., 16., 17., 15., 15., 15., 16., 17., 17., 16., 14.,
          15., 15., 16., 16., 15., 15., 15., 15., 17., 17., 15., 16.,
          17., 16., 16., 16., 16., 15., 15., 15., 16., 16., 16., 15.,
          17., 17. ]
      - [ 46., 47., 58., 147., 133., 125., 126., 55., 50., 42., 118.,
          146., 124., 127., 69., 47., 41., 73., 152., 128., 126., 100.,
          52., 47., 42., 132., 139., 124., 98., 54., 44., 38., 96., 151.,
          126., 57., 67., 65., 43., 59., 148., 135., 89., 98., 82., 50.,
          36., 116., 148., 30., 16., 7., 9., 9., 11., 9., 25., 6., 9.,
          9., 8., 11., 8., 23., 8., 10., 8., 9., 8., 8., 27., 9., 9.,
          10., 10., 9., 9., 38., 13., 8., 8., 7., 9., 10., 22., 16., 10.,
          5., 5., 6., 9., 19., 10., 14., 44., 57., 27., 6. ]
      - [ 205., 210., 201., 202., 203., 201., 202., 208., 202., 203.,
          203., 202., 203., 203., 201., 202., 202., 201., 202., 201.,
          201., 202., 202., 200., 201., 202., 201., 201., 202., 201.,
          202., 201., 200., 201., 201., 206., 207., 204., 205., 206.,
          204., 206., 191., 193., 190., 194., 193., 190., 196., 193.,
          214., 203., 202., 203., 202., 202., 211., 202., 203., 204.,
          203., 202., 203., 202., 202., 202., 202., 201., 202., 201.,
          203., 203., 202., 202., 201., 201., 201., 201., 202., 202.,
          202., 201., 202., 203., 208., 208., 206., 206., 207., 206.,
          205., 190., 190., 191., 193., 194., 189., 192. ]
      - [ 91., 110., 83., 66., 81., 107., 82., 107., 125., 112., 83.,
          73., 71., 82., 81., 90., 96., 96., 80., 79., 92., 49., 52.,
          55., 63., 85., 99., 97., 84., 79., 86., 72., 92., 105., 74.,
          98., 105., 90., 85., 96., 87., 72., 102., 117., 84., 72., 72.,
          65., 74., 17., 16., 16., 17., 15., 16., 15., 16., 17., 16.,
          17., 16., 16., 17., 17., 17., 16., 15., 16., 16., 17., 18.,
          19., 16., 16., 17., 14., 16., 17., 18., 16., 15., 18., 18.,
          16., 17., 16., 17., 17., 17., 19., 18., 18., 18., 16., 17.,
          15., 16., 17. ]
      - [ 191., 191., 192., 192., 190., 189., 189., 192., 192., 191.,
          190., 190., 190., 190., 192., 190., 189., 190., 190., 190.,
          189., 191., 190., 189., 189., 188., 190., 189., 192., 192.,
          188., 187., 188., 187., 185., 191., 187., 186., 189., 189.,
          185., 181., 190., 187., 186., 186., 187., 186., 182., 178.,
          107., 105., 111., 111., 174., 182., 177., 124., 104., 101.,
          137., 167., 177., 175., 143., 90., 110., 149., 173., 175.,
          170., 151., 139., 131., 157., 182., 173., 172., 162., 169.,
          143., 164., 179., 172., 172., 171., 166., 151., 168., 169.,
          171., 173., 175., 168., 162., 169., 169., 168. ]
      - [ 203., 201., 202., 199., 197., 205., 207., 202., 203., 203.,
          201., 198., 205., 206., 202., 201., 201., 199., 198., 205.,
          206., 202., 201., 201., 196., 197., 204., 205., 200., 201.,
          201., 199., 198., 205., 206., 206., 204., 206., 204., 199.,
          205., 206., 193., 190., 196., 198., 201., 206., 206., 203.,
          202., 202., 202., 200., 200., 199., 203., 202., 203., 203.,
          201., 202., 201., 201., 202., 201., 201., 201., 202., 203.,
          201., 201., 201., 199., 200., 202., 202., 201., 202., 203.,
          201., 200., 200., 201., 207., 206., 205., 206., 205., 205.,
          206., 194., 189., 192., 199., 200., 199., 197. ]
      - [ 81., 58., 63., 69., 67., 62., 60., 70., 58., 55., 63., 64.,
          62., 59., 71., 69., 61., 60., 71., 61., 60., 65., 73., 83.,
          68., 73., 63., 66., 64., 67., 74., 62., 62., 66., 64., 60.,
          64., 64., 57., 59., 63., 62., 62., 67., 70., 80., 78., 66.,
          64., 26., 27., 26., 26., 27., 27., 27., 27., 28., 28., 30.,
          27., 26., 24., 28., 30., 27., 26., 27., 26., 22., 28., 28.,
          26., 26., 25., 23., 24., 27., 25., 26., 27., 23., 18., 22.,
          28., 24., 27., 26., 22., 19., 21., 26., 27., 25., 22., 20.,
          21., 22. ]
      - [ 169., 168., 169., 167., 168., 168., 169., 169., 168., 168.,
          169., 170., 171., 171., 170., 168., 172., 168., 170., 169.,
          170., 169., 169., 169., 170., 171., 167., 172., 169., 167.,
          164., 171., 167., 169., 170., 171., 172., 168., 169., 167.,
          171., 171., 170., 171., 172., 169., 170., 173., 171., 196.,
          197., 197., 198., 198., 197., 199., 196., 197., 198., 199.,
          201., 198., 198., 195., 198., 199., 198., 199., 199., 199.,
          195., 196., 199., 198., 198., 197., 198., 194., 196., 198.,
          198., 199., 197., 196., 195., 196., 199., 199., 199., 198.,
          197., 197., 194., 200., 197., 197., 198., 196. ]
      - [ 17., 17., 17., 17., 17., 14., 17., 15., 16., 17., 18., 18.,
          17., 4., 16., 16., 17., 18., 18., 18., 2., 17., 17., 17., 17.,
          18., 19., 4., 17., 18., 16., 16., 18., 19., 7., 21., 17., 17.,
          17., 17., 17., 12., 17., 16., 18., 17., 18., 18., 14., 60.,
          60., 63., 66., 65., 64., 66., 60., 61., 63., 62., 66., 66.,
          64., 59., 60., 61., 65., 65., 65., 65., 58., 60., 64., 67.,
          64., 66., 65., 60., 61., 64., 63., 61., 65., 69., 62., 63.,
          64., 64., 67., 65., 66., 59., 63., 66., 64., 65., 65., 62. ]
      - [ 10., 9., 11., 11., 9., 8., 5., 10., 10., 11., 10., 9., 7., 10.,
          11., 11., 9., 9., 7., 10., 10., 12., 10., 10., 10., 10., 10.,
          9., 10., 10., 10., 11., 9., 8., 7., 9., 8., 9., 8., 9., 10.,
          6., 7., 7., 9., 9., 9., 8., 8., 7., 6., 9., 8., 7., 8., 5., 8.,
          7., 10., 8., 9., 8., 3., 9., 9., 11., 9., 8., 8., 8., 9., 8.,
          11., 8., 8., 7., 7., 8., 9., 8., 8., 9., 10., 6., 10., 10., 9.,
          9., 9., 9., 7., 8., 7., 9., 10., 9., 8., 8. ]
      - [ 202., 199., 197., 205., 207., 206., 159., 203., 201., 198.,
          205., 206., 204., 159., 201., 199., 198., 205., 206., 206.,
          163., 201., 196., 197., 204., 205., 207., 162., 201., 199.,
          198., 205., 206., 207., 160., 206., 204., 199., 205., 206.,
          205., 162., 196., 198., 201., 206., 206., 205., 161., 201.,
          196., 194., 205., 206., 209., 169., 201., 201., 197., 203.,
          206., 207., 168., 201., 200., 196., 204., 205., 209., 172.,
          201., 200., 196., 204., 205., 209., 172., 202., 200., 195.,
          205., 205., 210., 172., 206., 203., 196., 206., 206., 208.,
          172., 197., 195., 197., 207., 205., 208., 172. ]
      - [ 216., 207., 199., 206., 206., 207., 162., 203., 202., 201.,
          206., 207., 204., 159., 203., 201., 201., 206., 206., 205.,
          160., 190., 187., 195., 207., 206., 206., 161., 202., 199.,
          197., 205., 207., 206., 159., 203., 201., 198., 205., 206.,
          204., 159., 201., 199., 198., 205., 206., 206., 163., 206.,
          202., 199., 206., 206., 210., 172., 203., 201., 198., 207.,
          206., 209., 167., 203., 200., 198., 206., 205., 210., 170.,
          189., 182., 191., 207., 205., 210., 170., 201., 196., 194.,
          205., 206., 209., 169., 201., 201., 197., 203., 206., 207.,
          168., 201., 200., 196., 204., 205., 209., 172. ]
      - [ 204., 216., 207., 199., 206., 206., 207., 211., 203., 202.,
          201., 206., 207., 204., 203., 203., 201., 201., 206., 206.,
          205., 190., 190., 187., 195., 207., 206., 206., 201., 202.,
          199., 197., 205., 207., 206., 203., 203., 201., 198., 205.,
          206., 204., 201., 201., 199., 198., 205., 206., 206., 208.,
          206., 202., 199., 206., 206., 210., 203., 203., 201., 198.,
          207., 206., 209., 202., 203., 200., 198., 206., 205., 210.,
          189., 189., 182., 191., 207., 205., 210., 199., 201., 196.,
          194., 205., 206., 209., 201., 201., 201., 197., 203., 206.,
          207., 203., 201., 200., 196., 204., 205., 209. ]
      - [ 195., 194., 196., 196., 193., 194., 195., 195., 193., 195.,
          193., 193., 193., 191., 194., 194., 194., 193., 193., 194.,
          192., 194., 193., 195., 194., 195., 195., 186., 192., 193.,
          193., 193., 189., 187., 177., 192., 194., 192., 190., 187.,
          185., 190., 190., 192., 194., 188., 188., 186., 184., 188.,
          187., 188., 187., 188., 190., 186., 188., 188., 185., 190.,
          184., 139., 148., 187., 184., 181., 192., 136., 108., 139.,
          184., 182., 194., 157., 79., 120., 162., 183., 184., 189.,
          107., 89., 118., 177., 181., 193., 158., 74., 92., 100., 179.,
          180., 185., 119., 82., 81., 117., 191. ]
      - [ 153., 148., 175., 210., 208., 202., 203., 149., 182., 211.,
          204., 201., 202., 202., 191., 209., 203., 202., 202., 202.,
          200., 209., 201., 202., 202., 202., 201., 202., 205., 206.,
          203., 207., 206., 207., 204., 189., 191., 186., 191., 191.,
          193., 190., 86., 91., 94., 92., 93., 98., 95., 176., 175.,
          175., 175., 176., 182., 168., 175., 176., 175., 175., 175.,
          175., 185., 176., 175., 174., 174., 175., 175., 178., 174.,
          174., 174., 174., 174., 173., 173., 163., 168., 174., 176.,
          175., 173., 173., 160., 159., 172., 175., 174., 174., 173.,
          158., 157., 166., 174., 172., 173., 173. ]
      - [ 17., 18., 18., 17., 17., 19., 3., 17., 16., 17., 18., 18., 20.,
          3., 17., 17., 17., 16., 17., 20., 6., 16., 17., 16., 17., 16.,
          18., 9., 16., 17., 17., 17., 17., 17., 14., 16., 15., 16., 17.,
          18., 18., 17., 17., 16., 16., 17., 18., 18., 18., 61., 60.,
          62., 63., 66., 68., 67., 63., 60., 61., 63., 65., 66., 67.,
          61., 59., 62., 64., 66., 65., 65., 61., 60., 63., 67., 65.,
          63., 65., 60., 60., 63., 66., 65., 64., 66., 60., 61., 63.,
          62., 66., 66., 64., 59., 60., 61., 65., 65., 65., 65. ]
      - [ 208., 211., 203., 202., 201., 206., 207., 207., 203., 203.,
          201., 201., 206., 206., 191., 190., 190., 187., 195., 207.,
          206., 203., 201., 202., 199., 197., 205., 207., 202., 203.,
          203., 201., 198., 205., 206., 202., 201., 201., 199., 198.,
          205., 206., 202., 201., 201., 196., 197., 204., 205., 204.,
          213., 204., 204., 204., 203., 203., 209., 203., 202., 203.,
          203., 202., 202., 191., 192., 190., 189., 190., 190., 189.,
          203., 202., 202., 202., 200., 200., 199., 203., 202., 203.,
          203., 201., 202., 201., 201., 202., 201., 201., 201., 202.,
          203., 201., 201., 201., 199., 200., 202., 202. ]
      - [ 169., 168., 170., 170., 171., 170., 170., 166., 168., 166.,
          167., 172., 170., 168., 165., 168., 168., 169., 169., 168.,
          169., 168., 169., 169., 168., 169., 168., 168., 167., 169.,
          168., 168., 170., 168., 172., 169., 169., 168., 170., 169.,
          169., 169., 169., 171., 169., 168., 169., 167., 164., 198.,
          197., 198., 197., 198., 197., 197., 197., 199., 198., 197.,
          198., 198., 198., 197., 198., 198., 197., 199., 198., 198.,
          198., 199., 201., 198., 198., 199., 199., 199., 198., 199.,
          199., 199., 197., 196., 199., 198., 198., 197., 198., 200.,
          198., 198., 198., 199., 197., 196., 197., 199. ]
      - [ 190., 194., 189., 191., 198., 136., 113., 193., 191., 189.,
          180., 179., 127., 105., 194., 190., 190., 187., 125., 110.,
          117., 196., 195., 189., 180., 126., 112., 114., 185., 186.,
          180., 180., 159., 113., 107., 177., 168., 189., 157., 148.,
          111., 107., 164., 172., 189., 179., 168., 133., 107., 196.,
          187., 127., 137., 177., 191., 191., 191., 198., 182., 121.,
          164., 198., 191., 191., 192., 194., 159., 188., 192., 190.,
          192., 192., 193., 197., 189., 192., 189., 192., 194., 195.,
          193., 190., 190., 189., 191., 192., 193., 190., 190., 192.,
          191., 192., 192., 192., 192., 191., 191., 191. ]
      - [ 25., 27., 24., 23., 26., 25., 24., 27., 27., 25., 26., 26.,
          27., 26., 24., 26., 25., 25., 25., 25., 24., 23., 26., 25.,
          24., 25., 24., 26., 25., 26., 26., 26., 26., 26., 25., 25.,
          25., 27., 25., 25., 25., 26., 27., 24., 26., 25., 24., 26.,
          27., 34., 43., 53., 48., 58., 149., 132., 58., 56., 62., 52.,
          42., 126., 147., 58., 54., 57., 59., 44., 103., 154., 54., 56.,
          50., 55., 50., 74., 156., 45., 57., 53., 50., 53., 55., 148.,
          55., 37., 46., 54., 54., 48., 124., 167., 104., 36., 50., 59.,
          45., 87. ]
      - [ 194., 195., 193., 191., 191., 192., 190., 194., 194., 198.,
          196., 194., 195., 196., 191., 191., 192., 194., 192., 192.,
          194., 193., 193., 192., 192., 193., 192., 191., 192., 193.,
          192., 192., 192., 193., 193., 193., 192., 193., 192., 190.,
          192., 192., 193., 194., 193., 194., 194., 194., 195., 173.,
          171., 173., 173., 172., 172., 163., 174., 168., 170., 174.,
          175., 171., 165., 176., 166., 165., 174., 171., 175., 168.,
          175., 169., 170., 172., 174., 167., 174., 177., 178., 169.,
          161., 179., 178., 162., 177., 180., 169., 160., 147., 125.,
          120., 180., 180., 163., 132., 68., 59., 62. ]
      - [ 191., 190., 190., 187., 195., 207., 206., 203., 201., 202.,
          199., 197., 205., 207., 202., 203., 203., 201., 198., 205.,
          206., 202., 201., 201., 199., 198., 205., 206., 202., 201.,
          201., 196., 197., 204., 205., 200., 201., 201., 199., 198.,
          205., 206., 206., 204., 206., 204., 199., 205., 206., 191.,
          192., 190., 189., 190., 190., 189., 203., 202., 202., 202.,
          200., 200., 199., 203., 202., 203., 203., 201., 202., 201.,
          201., 202., 201., 201., 201., 202., 203., 201., 201., 201.,
          199., 200., 202., 202., 201., 202., 203., 201., 200., 200.,
          201., 207., 206., 205., 206., 205., 205., 206. ]
      - [ 81., 80., 83., 86., 86., 88., 86., 83., 82., 80., 83., 84.,
          84., 84., 84., 84., 84., 82., 85., 82., 86., 81., 81., 86.,
          83., 86., 82., 85., 81., 84., 80., 81., 83., 82., 82., 78.,
          78., 78., 78., 78., 79., 82., 77., 77., 77., 76., 80., 78.,
          80., 18., 16., 17., 16., 16., 15., 16., 17., 16., 16., 17.,
          15., 16., 15., 16., 17., 16., 17., 16., 16., 17., 17., 17.,
          16., 15., 16., 16., 17., 18., 19., 16., 16., 17., 14., 16.,
          17., 18., 16., 15., 18., 18., 16., 17., 16., 17., 17., 17.,
          19., 18. ]
      - [ 28., 28., 26., 26., 28., 26., 26., 29., 29., 28., 26., 27.,
          26., 26., 31., 29., 28., 26., 26., 25., 26., 33., 30., 29.,
          27., 25., 26., 27., 31., 27., 26., 25., 24., 24., 25., 31.,
          32., 27., 26., 26., 25., 25., 28., 34., 26., 25., 24., 24.,
          28., 99., 66., 46., 28., 81., 159., 131., 34., 43., 53., 48.,
          58., 149., 132., 58., 56., 62., 52., 42., 126., 147., 58., 54.,
          57., 59., 44., 103., 154., 54., 56., 50., 55., 50., 74., 156.,
          45., 57., 53., 50., 53., 55., 148., 55., 37., 46., 54., 54.,
          48., 124. ]
      - [ 168., 166., 167., 172., 170., 168., 167., 168., 168., 169.,
          169., 168., 169., 167., 169., 169., 168., 169., 168., 168.,
          169., 169., 168., 168., 170., 168., 172., 168., 169., 168.,
          170., 169., 169., 169., 170., 171., 169., 168., 169., 167.,
          164., 171., 171., 168., 167., 171., 172., 168., 169., 197.,
          199., 198., 197., 198., 198., 198., 197., 198., 198., 197.,
          199., 198., 198., 198., 199., 201., 198., 198., 199., 199.,
          199., 198., 199., 199., 199., 197., 196., 199., 198., 198.,
          197., 198., 200., 198., 198., 198., 199., 197., 196., 197.,
          199., 199., 199., 199., 198., 197., 197., 197. ]
      - [ 169., 168., 168., 169., 170., 171., 171., 170., 168., 172.,
          168., 170., 169., 170., 169., 169., 169., 170., 171., 167.,
          172., 169., 167., 164., 171., 167., 169., 170., 171., 172.,
          168., 169., 167., 171., 171., 170., 171., 172., 169., 170.,
          173., 171., 169., 168., 169., 168., 171., 171., 168., 196.,
          196., 197., 198., 199., 201., 198., 196., 195., 198., 199.,
          198., 199., 199., 196., 195., 196., 199., 198., 198., 197.,
          198., 194., 196., 198., 198., 199., 197., 195., 195., 196.,
          199., 199., 199., 198., 186., 197., 194., 200., 197., 197.,
          198., 200., 198., 197., 198., 197., 197., 199. ]
      - [ 52., 34., 33., 35., 30., 24., 52., 56., 36., 34., 31., 32.,
          37., 59., 49., 65., 43., 52., 61., 75., 47., 66., 65., 53.,
          73., 84., 69., 61., 73., 54., 67., 76., 69., 63., 60., 99.,
          78., 82., 88., 71., 77., 64., 112., 97., 74., 87., 83., 72.,
          80., 29., 25., 25., 20., 72., 107., 78., 27., 28., 28., 23.,
          43., 120., 91., 28., 28., 29., 26., 22., 29., 47., 27., 27.,
          28., 27., 28., 24., 25., 28., 29., 27., 28., 29., 27., 36.,
          29., 28., 29., 28., 28., 24., 52., 30., 27., 26., 25., 24.,
          33., 53. ]
      - [ 16., 16., 17., 17., 16., 15., 15., 17., 17., 18., 17., 17.,
          17., 15., 17., 16., 17., 19., 16., 18., 16., 16., 16., 17.,
          18., 16., 16., 17., 17., 17., 16., 16., 16., 17., 18., 17.,
          16., 16., 15., 17., 16., 17., 15., 16., 17., 16., 16., 16.,
          16., 61., 60., 62., 63., 66., 68., 67., 63., 60., 61., 63.,
          65., 66., 67., 61., 59., 62., 64., 66., 65., 65., 61., 60.,
          63., 67., 65., 63., 65., 60., 60., 63., 66., 65., 64., 66.,
          60., 61., 63., 62., 66., 66., 64., 59., 60., 61., 65., 65.,
          65., 65. ]
      - [ 201., 202., 199., 197., 205., 207., 206., 203., 203., 201.,
          198., 205., 206., 204., 201., 201., 199., 198., 205., 206.,
          206., 201., 201., 196., 197., 204., 205., 207., 201., 201.,
          199., 198., 205., 206., 207., 204., 206., 204., 199., 205.,
          206., 205., 190., 196., 198., 201., 206., 206., 205., 199.,
          201., 196., 194., 205., 206., 209., 201., 201., 201., 197.,
          203., 206., 207., 203., 201., 200., 196., 204., 205., 209.,
          202., 201., 200., 196., 204., 205., 209., 201., 202., 200.,
          195., 205., 205., 210., 206., 206., 203., 196., 206., 206.,
          208., 197., 197., 195., 197., 207., 205., 208. ]
      - [ 31., 24., 24., 23., 23., 29., 29., 35., 48., 37., 22., 25.,
          32., 41., 19., 32., 32., 41., 46., 45., 63., 22., 18., 40.,
          46., 32., 18., 12., 20., 31., 37., 32., 23., 17., 18., 45.,
          38., 34., 24., 25., 30., 20., 51., 28., 33., 24., 26., 29.,
          25., 47., 67., 84., 118., 127., 142., 116., 26., 64., 108.,
          59., 129., 98., 30., 38., 30., 44., 30., 39., 45., 33., 40.,
          43., 39., 46., 41., 43., 49., 52., 48., 46., 56., 61., 56.,
          56., 59., 47., 44., 50., 59., 47., 46., 50., 54., 49., 49.,
          60., 57., 54. ]
      - [ 6., 3., 9., 11., 10., 7., 13., 10., 9., 11., 11., 9., 8., 5.,
          10., 10., 11., 10., 9., 7., 10., 11., 11., 9., 9., 7., 10.,
          10., 12., 10., 10., 10., 10., 10., 9., 10., 10., 10., 11., 9.,
          8., 7., 9., 8., 9., 8., 9., 10., 6., 6., 3., 5., 8., 8., 6.,
          8., 7., 6., 9., 8., 7., 8., 5., 8., 7., 10., 8., 9., 8., 3.,
          9., 9., 11., 9., 8., 8., 8., 9., 8., 11., 8., 8., 7., 7., 8.,
          9., 8., 8., 9., 10., 6., 10., 10., 9., 9., 9., 9., 7. ]
      - [ 203., 203., 201., 201., 206., 206., 205., 190., 190., 187.,
          195., 207., 206., 206., 201., 202., 199., 197., 205., 207.,
          206., 203., 203., 201., 198., 205., 206., 204., 201., 201.,
          199., 198., 205., 206., 206., 201., 201., 196., 197., 204.,
          205., 207., 201., 201., 199., 198., 205., 206., 207., 202.,
          203., 200., 198., 206., 205., 210., 189., 189., 182., 191.,
          207., 205., 210., 199., 201., 196., 194., 205., 206., 209.,
          201., 201., 201., 197., 203., 206., 207., 203., 201., 200.,
          196., 204., 205., 209., 202., 201., 200., 196., 204., 205.,
          209., 201., 202., 200., 195., 205., 205., 210. ]
      - [ 127., 135., 115., 55., 63., 61., 61., 128., 130., 134., 74.,
          54., 61., 61., 128., 127., 136., 104., 51., 61., 61., 129.,
          129., 131., 126., 63., 57., 62., 128., 128., 129., 137., 86.,
          53., 62., 127., 128., 128., 134., 117., 56., 60., 129., 127.,
          126., 130., 135., 71., 55., 6., 3., 5., 8., 8., 6., 8., 7., 6.,
          9., 8., 7., 8., 5., 8., 7., 10., 8., 9., 8., 3., 9., 9., 11.,
          9., 8., 8., 8., 9., 8., 11., 8., 8., 7., 7., 8., 9., 8., 8.,
          9., 10., 6., 10., 10., 9., 9., 9., 9., 7. ]
      - [ 147., 204., 216., 207., 199., 206., 206., 208., 211., 203.,
          202., 201., 206., 207., 207., 203., 203., 201., 201., 206.,
          206., 191., 190., 190., 187., 195., 207., 206., 203., 201.,
          202., 199., 197., 205., 207., 202., 203., 203., 201., 198.,
          205., 206., 202., 201., 201., 199., 198., 205., 206., 182.,
          181., 185., 179., 112., 101., 103., 179., 179., 178., 188.,
          150., 98., 103., 177., 178., 178., 180., 183., 118., 93., 176.,
          177., 178., 177., 185., 160., 92., 177., 175., 175., 177.,
          179., 184., 122., 176., 175., 175., 175., 176., 182., 168.,
          175., 176., 175., 175., 175., 175., 185. ]
      - [ 190., 191., 191., 190., 190., 191., 191., 190., 191., 190.,
          191., 190., 191., 191., 191., 191., 189., 189., 189., 191.,
          191., 190., 190., 190., 189., 190., 191., 191., 189., 189.,
          191., 191., 190., 190., 190., 190., 190., 190., 190., 190.,
          191., 190., 190., 189., 191., 191., 191., 191., 191., 175.,
          181., 181., 179., 178., 179., 177., 177., 180., 180., 179.,
          177., 177., 184., 177., 180., 181., 181., 179., 175., 196.,
          182., 182., 179., 178., 178., 184., 185., 180., 183., 183.,
          178., 181., 188., 112., 180., 181., 181., 180., 184., 189.,
          76., 182., 180., 179., 181., 186., 172., 63. ]
      - [ 210., 201., 202., 203., 201., 202., 199., 202., 203., 203.,
          202., 203., 203., 201., 202., 202., 201., 202., 201., 201.,
          199., 202., 200., 201., 202., 201., 201., 196., 201., 202.,
          201., 200., 201., 201., 199., 207., 204., 205., 206., 204.,
          206., 204., 193., 190., 194., 193., 190., 196., 198., 175.,
          177., 179., 184., 122., 87., 96., 175., 175., 176., 182., 168.,
          97., 90., 175., 175., 175., 175., 185., 137., 85., 174., 174.,
          175., 175., 178., 176., 105., 174., 174., 174., 173., 173.,
          183., 149., 174., 176., 175., 173., 173., 175., 181., 172.,
          175., 174., 174., 173., 173., 181. ]
      - [ 173., 174., 174., 175., 176., 176., 173., 171., 170., 172.,
          173., 174., 175., 173., 175., 173., 175., 175., 176., 175.,
          175., 173., 174., 172., 171., 174., 175., 173., 170., 173.,
          175., 174., 176., 175., 173., 173., 177., 173., 173., 172.,
          173., 171., 171., 172., 170., 173., 172., 171., 173., 130.,
          159., 164., 168., 142., 150., 176., 177., 168., 171., 173.,
          177., 180., 170., 172., 170., 172., 172., 171., 193., 110.,
          172., 172., 172., 172., 177., 185., 63., 172., 170., 170.,
          174., 204., 83., 32., 171., 172., 173., 196., 111., 30., 59.,
          171., 172., 196., 108., 22., 60., 57. ]
      - [ 25., 27., 25., 24., 25., 25., 25., 24., 24., 24., 24., 24.,
          25., 25., 25., 24., 26., 25., 24., 28., 27., 25., 25., 24.,
          23., 24., 24., 24., 25., 26., 26., 24., 26., 27., 24., 24.,
          25., 24., 25., 26., 25., 24., 26., 24., 26., 26., 25., 25.,
          28., 44., 39., 39., 42., 57., 58., 56., 40., 46., 51., 46.,
          50., 58., 54., 49., 45., 44., 46., 46., 54., 56., 48., 54.,
          50., 44., 45., 45., 57., 47., 55., 54., 49., 60., 55., 37.,
          36., 44., 75., 113., 147., 167., 104., 72., 102., 122., 143.,
          162., 166., 174. ]
      - [ 72., 71., 73., 74., 75., 75., 75., 75., 76., 77., 78., 77.,
          80., 77., 75., 78., 76., 76., 78., 77., 75., 76., 78., 78.,
          80., 80., 80., 78., 79., 79., 80., 79., 79., 81., 84., 82.,
          84., 86., 83., 82., 82., 83., 83., 85., 85., 81., 82., 83.,
          81., 16., 16., 18., 8., 31., 166., 170., 16., 15., 16., 14.,
          13., 148., 175., 15., 16., 17., 19., 6., 123., 177., 16., 17.,
          17., 16., 2., 92., 181., 16., 15., 16., 16., 5., 75., 179.,
          15., 15., 15., 18., 6., 58., 176., 17., 16., 16., 17., 10.,
          25., 162. ]
      - [ 45., 38., 34., 35., 34., 35., 38., 49., 36., 31., 34., 33.,
          38., 38., 38., 31., 31., 34., 33., 38., 38., 33., 31., 38.,
          34., 38., 41., 35., 37., 37., 39., 38., 38., 42., 35., 35.,
          34., 34., 37., 43., 36., 41., 37., 36., 42., 36., 36., 37.,
          42., 44., 39., 35., 36., 36., 36., 39., 50., 36., 32., 35.,
          32., 36., 37., 39., 31., 32., 35., 33., 39., 37., 33., 32.,
          37., 34., 39., 42., 36., 37., 37., 39., 38., 40., 41., 36.,
          36., 36., 33., 39., 42., 37., 41., 37., 36., 40., 37., 41.,
          38., 43. ]
      - [ 59., 70., 69., 58., 55., 60., 62., 58., 63., 69., 67., 62.,
          60., 62., 58., 55., 63., 64., 62., 59., 62., 69., 61., 60.,
          71., 61., 60., 66., 73., 83., 68., 73., 63., 66., 79., 67.,
          74., 62., 62., 66., 64., 82., 64., 64., 57., 59., 63., 62.,
          68., 33., 27., 17., 50., 128., 126., 114., 31., 32., 29., 16.,
          39., 137., 119., 33., 30., 28., 32., 11., 86., 170., 32., 32.,
          30., 30., 24., 41., 131., 29., 33., 32., 32., 28., 47., 32.,
          31., 31., 30., 32., 31., 30., 30., 31., 31., 28., 29., 31.,
          28., 29. ]
      - [ 9., 6., 3., 9., 11., 10., 7., 7., 10., 9., 11., 11., 9., 8.,
          9., 10., 10., 11., 10., 9., 7., 10., 11., 11., 9., 9., 7., 10.,
          10., 12., 10., 10., 10., 10., 10., 10., 10., 10., 10., 11., 9.,
          8., 10., 9., 8., 9., 8., 9., 10., 13., 6., 3., 5., 8., 8., 6.,
          8., 7., 6., 9., 8., 7., 8., 8., 8., 7., 10., 8., 9., 8., 7.,
          9., 9., 11., 9., 8., 8., 9., 9., 8., 11., 8., 8., 7., 10., 8.,
          9., 8., 8., 9., 10., 9., 10., 10., 9., 9., 9., 9. ]
      - [ 207., 203., 203., 201., 201., 206., 206., 191., 190., 190.,
          187., 195., 207., 206., 203., 201., 202., 199., 197., 205.,
          207., 202., 203., 203., 201., 198., 205., 206., 202., 201.,
          201., 199., 198., 205., 206., 202., 201., 201., 196., 197.,
          204., 205., 200., 201., 201., 199., 198., 205., 206., 178.,
          178., 180., 183., 118., 93., 97., 177., 178., 177., 185., 160.,
          92., 95., 175., 175., 177., 179., 184., 122., 87., 175., 175.,
          175., 176., 182., 168., 97., 176., 175., 175., 175., 175.,
          185., 137., 175., 174., 174., 175., 175., 178., 176., 174.,
          174., 174., 174., 173., 173., 183. ]
      - [ 146., 181., 195., 192., 191., 190., 190., 205., 210., 201.,
          202., 203., 201., 202., 208., 202., 203., 203., 202., 203.,
          203., 201., 202., 202., 201., 202., 201., 201., 202., 202.,
          200., 201., 202., 201., 201., 202., 201., 202., 201., 200.,
          201., 201., 206., 207., 204., 205., 206., 204., 206., 144.,
          171., 193., 193., 191., 192., 190., 193., 214., 203., 202.,
          203., 202., 202., 211., 202., 203., 204., 203., 202., 203.,
          202., 202., 202., 202., 201., 202., 201., 203., 203., 202.,
          202., 201., 201., 201., 201., 202., 202., 202., 201., 202.,
          203., 208., 208., 206., 206., 207., 206., 205. ]
      - [ 19., 32., 32., 41., 46., 45., 63., 22., 18., 40., 46., 32.,
          18., 12., 20., 31., 37., 32., 23., 17., 18., 45., 38., 34.,
          24., 25., 30., 20., 51., 28., 33., 24., 26., 29., 25., 34.,
          36., 33., 25., 24., 19., 23., 39., 37., 30., 22., 18., 17.,
          16., 33., 41., 40., 38., 51., 56., 77., 49., 47., 51., 47.,
          32., 44., 81., 56., 63., 81., 75., 42., 46., 79., 46., 49.,
          61., 65., 37., 38., 80., 54., 64., 79., 70., 38., 62., 93.,
          50., 60., 80., 59., 37., 96., 92., 49., 45., 42., 43., 76.,
          95., 84. ]
      - [ 181., 195., 192., 191., 190., 190., 187., 210., 201., 202.,
          203., 201., 202., 199., 202., 203., 203., 202., 203., 203.,
          201., 202., 202., 201., 202., 201., 201., 199., 202., 200.,
          201., 202., 201., 201., 196., 201., 202., 201., 200., 201.,
          201., 199., 207., 204., 205., 206., 204., 206., 204., 171.,
          193., 193., 191., 192., 190., 189., 214., 203., 202., 203.,
          202., 202., 202., 202., 203., 204., 203., 202., 203., 203.,
          202., 202., 202., 201., 202., 201., 201., 203., 202., 202.,
          201., 201., 201., 199., 202., 202., 202., 201., 202., 203.,
          201., 208., 206., 206., 207., 206., 205., 206. ]
      - [ 16., 16., 17., 16., 17., 17., 17., 21., 17., 16., 17., 18.,
          17., 17., 19., 18., 17., 15., 16., 17., 17., 16., 17., 16.,
          17., 16., 17., 17., 16., 17., 16., 16., 16., 17., 18., 16.,
          15., 16., 16., 17., 18., 17., 15., 16., 17., 15., 16., 17.,
          16., 47., 60., 61., 63., 65., 64., 65., 61., 61., 59., 63.,
          65., 66., 66., 60., 58., 61., 64., 65., 67., 69., 58., 58.,
          61., 65., 67., 69., 68., 60., 60., 61., 65., 68., 67., 69.,
          59., 61., 62., 64., 66., 67., 69., 61., 62., 63., 63., 66.,
          67., 67. ]
      - [ 27., 23., 24., 25., 26., 25., 24., 27., 25., 24., 25., 25.,
          25., 24., 24., 24., 24., 24., 25., 25., 25., 24., 26., 25.,
          24., 28., 27., 24., 25., 24., 23., 24., 24., 24., 22., 26.,
          26., 24., 26., 27., 24., 24., 25., 24., 25., 26., 25., 24.,
          27., 141., 115., 82., 56., 39., 34., 43., 44., 39., 39., 42.,
          57., 58., 56., 40., 46., 51., 46., 50., 58., 54., 49., 45.,
          44., 46., 46., 54., 56., 48., 54., 50., 44., 45., 45., 57.,
          47., 55., 54., 49., 60., 55., 37., 36., 44., 75., 113., 147.,
          167., 104. ]
      - [ 215., 207., 203., 203., 201., 201., 206., 192., 191., 190.,
          190., 187., 195., 207., 202., 203., 201., 202., 199., 197.,
          205., 203., 202., 203., 203., 201., 198., 205., 201., 202.,
          201., 201., 199., 198., 205., 201., 202., 201., 201., 196.,
          197., 204., 201., 200., 201., 201., 199., 198., 205., 210.,
          209., 203., 202., 203., 203., 202., 193., 191., 192., 190.,
          189., 190., 190., 202., 203., 202., 202., 202., 200., 200.,
          204., 203., 202., 203., 203., 201., 202., 202., 201., 202.,
          201., 201., 201., 202., 202., 201., 201., 201., 199., 200.,
          202., 202., 201., 202., 203., 201., 200., 200. ]
      - [ 18., 7., 42., 172., 171., 169., 169., 18., 11., 27., 164.,
          174., 169., 169., 18., 15., 12., 143., 178., 168., 172., 18.,
          17., 4., 118., 183., 169., 170., 18., 19., 4., 93., 187., 168.,
          169., 17., 20., 3., 67., 186., 171., 168., 17., 20., 9., 41.,
          175., 172., 168., 25., 23., 21., 21., 19., 17., 18., 25., 25.,
          23., 21., 19., 17., 17., 26., 25., 23., 20., 19., 20., 18.,
          25., 24., 23., 21., 19., 20., 18., 24., 22., 23., 20., 20.,
          20., 19., 25., 22., 23., 20., 20., 21., 19., 23., 22., 21.,
          19., 19., 19., 19. ]
   decision_functions:
      -
         sv_count: 1
         rho: -1.8069633415852882e+00
         alpha: [ 1. ]
         index: [ 0 ]
